tree
version=v4
num_class=1
num_tree_per_iteration=1
label_index=0
max_feature_idx=73
objective=regression
feature_names=cusp3_dasha_active cusp3_lock_level cusp3_has_lock cusp3_transit_active cusp3_transit_ingress cusp3_transit_orb_inv cusp3_double_active cusp4_dasha_active cusp4_lock_level cusp4_has_lock cusp4_transit_active cusp4_transit_ingress cusp4_transit_orb_inv cusp4_double_active cusp10_dasha_active cusp10_lock_level cusp10_has_lock cusp10_transit_active cusp10_transit_ingress cusp10_transit_orb_inv cusp10_double_active cusp8_active cusp8_transit_orb_inv cusp12_active cusp12_transit_orb_inv rank_dasha_quality_score rank_convergence_proxy rank_trigger_score rank_net_activation_score rank_death_signal_composite rank_maraka_score rank_transit_freshness rank_tightest_orb_inv_primary rank_n_ingresses_primary rank_env_x_trigger rank_total_signal rank_negative_event_strength rank_saturn_transit_density rank_activation_density rank_net_transit_signal rule_tier_score rule_score_normalized rule_n_primary_active rule_n_primary_locks rule_n_primary_double rule_n_secondary_active rule_n_negative_active rule_total_quality rule_yogakaraka_count rule_death_karaka_active rule_sun_active rule_cusp4_lock_bonus margin_from_best_convergence_proxy is_unique_best_convergence_proxy margin_from_best_trigger_score is_unique_best_trigger_score margin_from_best_net_transit_signal is_unique_best_net_transit_signal margin_from_best_transit_freshness is_unique_best_transit_freshness n_unique_best_flags rule_score_margin_from_best rank_composite_mean rank_composite_max_count is_pd_transition is_ad_transition is_new_pd any_primary_ingress all_three_heavy_active saturn_is_md saturn_dasha_level both_marakas_active dasha_transition_count deterministic_tier
feature_infos=[0:1] [0:3] [0:1] [0:1] [0:1] [0:10] [0:1] [0:1] [0:3] [0:1] [0:1] [0:1] [0:10] [0:1] [0:1] [0:3] [0:1] [0:1] [0:1] [0:10] [0:1] [0:1] [0:10] [0:1] [0:10] [0.041666667908430099:1] [0.041666667908430099:1] [0.041666667908430099:1] [0.041666667908430099:1] [0.041666667908430099:1] [0.041666667908430099:1] [0.041666667908430099:1] [0.041666667908430099:1] [0.2916666567325592:1] [0.041666667908430099:1] [0.041666667908430099:1] [0.041666667908430099:1] [0.083333335816860199:1] [0.041666667908430099:1] [0.041666667908430099:1] [0:5] [-0.026007803156971931:1] [0:3] [0:3] [0:3] [0:2] [0:4] [-4.5:9] none [0:3] [0:1] [0:1] [-22.200000762939453:0] [0:1] [-74.400001525878906:0] [0:1] [-30.349206924438477:0] [0:1] [-6.4000000953674316:0] [0:1] [0:4] [-102.60077667236328:0] [0.14444445073604584:0.94999998807907104] [0:14] [0:1] [0:1] [0:1] [0:1] [0:1] [0:1] [0:3] [0:1] [0:3] [0:5]
tree_sizes=1490 1559 1542 1540 1542 1552 1547 1371 1289 947 1556 1500 1436 1535 1557 1539 1275 1520 1253 1566 1554 1496 1508 1560 1528 905 972 1164 1450 1572 1457 1570 1474 1461 1460 1236 1268 1218 1129 1237 1539 1570 1567 1562 1532 1493 1482 1280 1512 1570 1308 1316 1555 1563 1287 1565 1453 1451 1425 1574 1550 1566 1481 1566 1545 1562 1562 1528 1551 1532 1550 1562 1559 1516 1528 1369 1498 1387 1252 1566 1234 1496 1100 1560 1550 1514 1556 1532 1566 1564 962 1544 909 1086 1465 996 995 995 721 722 1533 1571 1560 1567 1452 1566 1039 1061 1557 1144 1533 1533 1244 1278 1539 1549 1521 1545 1539 1519 1534 1434 1463 1542 1470 1547 903 968 1577 1542 1553 1491 1514 1443 1563 1539 1539 1422 1452 1325 1493 1438 1430 1447 1413 1210 1342 1495 1255 1225 1503 1555 1491 1525 1508 1169 1469 1418 1439 1540 1546 1448 1568 1557 1527 1465 1361 1295 1249 1534 1536 1436 1542 1477 1522 1061 1575 1187 1329 1547 1419 1539 1540 1499 1465 1371 1548 1550 1556 1354 1127 1095 1393 1002 1027 1318 1449 1015 1522 1414 1553 1551 1566 1519 1549 1511 1542 1503 1576 1508 1438 1456 1556 1436 778 1246 1197 1194 1280 1270 1423 1233 1556 1430 1506 1529 1454 1444 1470 1428 1548 1576 1569 1574 1078 1383 1548 1574 1542 1576 1468 1527 1511 1486 1411 1574 1516 1527 1532 1517 1085 996 967 876 814 1334 1364 1565 1453 1269 1350 1541 1542 1547 1532 1391 1545 1509 1545 1516 1483 1548 1346 1149 1426 1366 1367 1562 1357 1533 1463 1378 1112 1049 1116 1550 1541 1547 1512 1574 1157 1154 1420 972 1139 1540 1257 1529 1364 1512 1234 1259 944 1281 1525 1421 1360 1451 1478 1287 1518 1481 1439 1469 1541 1524 1532 1351 1448 1228 1539 1334 1541 1123 1532 1483 1539 1543 1562 1545 1554 1559 1542 1562 1559 1567 1493 1336 1501 1360 1553 1559 1559 1527 1469 1177 1363 1268 1349 1246 1577 1561 1174 1162 1450 1475 1563 1556 1541 1567 1504 1356 1361 1404 987 1549 1545 1543 1078 1549 1553 1230 1514 1514 1520 867 755 1119 843 964 1007 1567 1545 1002 1530 1566 1550 1526 1561 1484 1512 1550 1539 1513 1042 1439 1567 1541 1477 1382 1552 1553 1532 1523 1529 1117 1272 1572 1554 1577 1561 1367 1561 1504 1267 1322 1452 1438 1513 1522 1077 1508 1537 1167 1539 1548 1554 1321 1375 1271 1535 1507 1550 1474 1262 1517 1513 1531 1532 1578 1524 1352 1497 1508 1531 1261 1319 1334 1330 1577 1471 1375 1575 1471 1442 1550 1537 1370 1557 1558 1576 1367 1560 1508 1294 1303 1155 1533 1478 1044 934 1528 932 1524 1527 1460 1420 1346 1556 1541 1374 1526 1550 1443 1364 1568 1444 1446 1515 1568 1440 1558 1449 1544 1566 1501 1550 1529 1553 1547

Tree=0
num_leaves=15
num_cat=0
split_feature=28 28 38 30 65 35 38 27 61 34 41 34 34 41
split_gain=0.605042 0.976155 0.875156 0.701158 0.470194 0.434951 0.522997 0.424927 0.496054 0.385603 0.246549 0.329539 0.19473 0.180339
threshold=0.15625000000000003 0.21875000000000003 0.21875000000000003 0.36458332836627966 1.0000000180025095e-35 0.13541666418313983 0.78125000000000011 0.63541665673255932 -49.183427810668938 0.32291667163372045 0.72441118955612194 0.48958332836627966 0.15625000000000003 0.78915703296661388
decision_type=2 2 2 2 2 2 2 2 2 2 2 2 2 2
left_child=4 2 9 -4 10 13 -7 8 -6 -2 11 -1 -12 -3
right_child=1 5 3 -5 7 6 -8 -9 -10 -11 12 -13 -14 -15
leaf_value=0.081098498658030274 0.080918155630439054 0.081305803691943873 0.082803825050022456 0.081815462932648395 0.081436535881958413 0.08151896138782623 0.081320080378215837 0.081367975686989238 0.083970008811765681 0.081730101428314508 0.0815257877700932 0.081702057932741767 0.080805235803388803 0.080877865787979675
leaf_weight=1203 391 1476 487 910 60 18379 7367 167 60 545 116 474 1148 649
leaf_count=1203 391 1476 487 910 60 18379 7367 167 60 545 116 474 1148 649
internal_value=0.0814431 0.0814715 0.0818638 0.0821801 0.0811839 0.0814378 0.0814613 0.0819198 0.0828002 0.0814106 0.0811042 0.0812814 0.0808872 0.0811641
internal_weight=33432 30204 2333 1397 3228 27871 25746 287 120 936 2941 1677 1264 2125
internal_count=33432 30204 2333 1397 3228 27871 25746 287 120 936 2941 1677 1264 2125
is_linear=0
shrinkage=1


Tree=1
num_leaves=15
num_cat=0
split_feature=28 28 36 27 36 58 32 34 39 45 36 61 34 41
split_gain=0.580116 0.938885 0.594452 0.602752 0.577811 0.643237 0.357475 0.292681 0.537644 0.346451 0.288351 0.286637 0.256036 0.469559
threshold=0.15625000000000003 0.21875000000000003 0.69791665673255932 0.17708333581686023 0.92708334326744091 -2.3542188405990596 0.76041665673255932 0.48958332836627966 0.36458332836627966 1.5000000000000002 0.86458334326744091 -38.083805084228509 0.23958333581686023 0.28920249640941625
decision_type=2 2 2 2 2 2 2 2 2 2 2 2 2 2
left_child=7 2 3 -2 6 -6 -3 12 9 -9 -4 -10 13 -1
right_child=1 4 10 -5 5 -7 -8 8 11 -11 -12 -13 -14 -15
leaf_value=0.0010984703139043771 -0.00014949887600101408 -6.4910095369850973e-05 -0.00050568896584806192 0.00078521306002349192 0.0011605866456172876 0.00013962341224577646 0.00010088900334687855 0.0007627024278588539 0.0004268099354990458 -0.00017873518275872372 0.00033414952607976423 -0.00057981067103486401 -0.00062571633578158538 -0.00030785128291623264
leaf_weight=96 297 19323 331 1417 330 1164 7054 403 110 201 288 590 1020 808
leaf_count=96 297 19323 331 1417 330 1164 7054 403 110 201 288 590 1020 808
internal_value=6.39889e-06 3.4239e-05 0.000418971 0.000611691 1.20585e-06 0.000383433 -1.97953e-05 -0.000247358 -1.8915e-07 0.000418489 -8.37644e-05 -0.000390344 -0.000403831 -0.000128252
internal_weight=33432 30204 2333 1714 27871 1494 26377 3228 1304 604 619 700 1924 904
internal_count=33432 30204 2333 1714 27871 1494 26377 3228 1304 604 619 700 1924 904
is_linear=0
shrinkage=0.02


Tree=2
num_leaves=15
num_cat=0
split_feature=25 31 56 37 63 56 25 40 61 12 61 5 56 25
split_gain=0.407877 0.624117 0.427975 0.847363 0.500593 0.433237 0.413228 0.669561 0.661402 0.347316 1.13323 0.336909 0.228879 0.0659591
threshold=0.71875000000000011 0.13541666418313983 -8.9047617912292463 0.61458334326744091 1.0000000180025095e-35 -10.490476131439207 0.30208332836627966 3.5000000000000004 -64.416305541992173 0.85107925534248363 -17.667138099670407 0.92167854309082042 -9.5126991271972638 0.17708333581686023
decision_type=2 2 2 2 2 2 2 2 2 2 2 2 2 2
left_child=1 12 3 5 -5 -2 7 -3 -8 11 -11 -4 13 -1
right_child=2 6 9 4 -6 -7 8 -9 -10 10 -12 -13 -14 -15
leaf_value=-5.3178841596121323e-05 -0.00021018329003714289 -8.1244893115873382e-05 -0.00034457791413587918 -9.0720382907465445e-05 0.00096651588553103851 0.00024988420706171399 0.0013583669702658494 0.0006615574256284162 0.00011868990036483107 0.0020679731434638344 -0.00017610008882652347 0.00024408457300547138 0 -0.0010140239960617489
leaf_weight=83 2949 8426 4123 215 544 1095 170 504 13959 101 455 383 118 307
leaf_count=83 2949 8426 4123 215 544 1095 170 504 13959 101 455 383 118 307
internal_value=6.28236e-06 5.20392e-05 -0.000100956 3.06374e-05 0.000643137 -8.04269e-05 6.81939e-05 -3.65297e-05 0.000135781 -0.000229613 0.000219636 -0.000289768 -0.000632178 -0.000864967
internal_weight=33432 23567 9865 4803 759 4044 23059 8930 14129 5062 556 4506 508 390
internal_count=33432 23567 9865 4803 759 4044 23059 8930 14129 5062 556 4506 508 390
is_linear=0
shrinkage=0.02


Tree=3
num_leaves=15
num_cat=0
split_feature=28 28 31 50 65 68 29 28 28 41 41 15 56 56
split_gain=0.555479 0.898828 0.53821 0.484281 0.443364 0.378815 0.764133 0.408377 0.235626 0.360365 0.231196 0.191514 0.173626 0.106549
threshold=0.15625000000000003 0.21875000000000003 0.13541666418313983 1.0000000180025095e-35 1.0000000180025095e-35 1.0000000180025095e-35 0.48958332836627966 0.94791665673255932 0.093750000000000014 0.66171216964721691 0.72441118955612194 1.0000000180025095e-35 -11.699999809265135 -9.6637420654296857
decision_type=2 2 2 2 2 2 2 2 2 2 2 2 2 2
left_child=4 2 -2 -4 10 7 -7 -3 13 -10 11 -1 -12 -6
right_child=1 5 3 -5 8 6 -8 -9 9 -11 12 -13 -14 -15
leaf_value=-0.00027124531377820989 -0.0011080847698521901 -3.8760891766287387e-06 0.00059188630549851669 -0.00021346071994380109 0.00037229227138237217 0.00054457298563626 -0.0010238890284067625 0.00036716648594711554 0 0.0018801654407451318 -0.00014282586400428515 0.00021223872975649567 -0.00070710444468224129 -0.00066184759934743249
leaf_weight=1291 75 26104 1950 308 63 159 377 1231 79 78 437 386 827 67
leaf_count=1291 75 26104 1950 308 63 159 377 1231 79 78 437 386 827 67
internal_value=6.17325e-06 3.34285e-05 0.000409863 0.000472842 -0.000242123 1.09234e-06 -0.000520687 1.22045e-05 0.000471888 0.00098432 -0.000319673 -0.000147612 -0.000529866 -2.32306e-05
internal_weight=33432 30204 2333 2258 3228 27871 536 27335 287 157 2941 1677 1264 130
internal_count=33432 30204 2333 2258 3228 27871 536 27335 287 157 2941 1677 1264 130
is_linear=0
shrinkage=0.02


Tree=4
num_leaves=15
num_cat=0
split_feature=28 28 38 30 36 47 72 34 58 36 41 36 34 34
split_gain=0.533219 0.861545 0.83745 0.67292 0.55424 1.03964 0.42743 0.368996 0.340428 0.314222 0.222913 0.298958 0.254573 0.116159
threshold=0.15625000000000003 0.21875000000000003 0.21875000000000003 0.36458332836627966 0.92708334326744091 0.84999999403953563 1.5000000000000002 0.32291667163372045 -2.6666666269302364 0.82291665673255932 0.73650565743446361 0.13541666418313983 0.48958332836627966 0.61458334326744091
decision_type=2 2 2 2 2 2 2 2 2 2 2 2 2 2
left_child=6 2 7 -4 9 -6 10 -2 -8 -3 12 -12 -1 -10
right_child=1 4 3 -5 5 -7 8 -9 13 -11 11 -13 -14 -15
leaf_value=-0.00031222638658521282 -0.00052287712133020385 5.7724013423139028e-06 0.0013215572930345631 0.00035380521939341018 0.00082670198595769353 -0.00021800568737323931 0.0014568571096405069 0.00026952294797836981 -0.00056680292404931172 -0.0002021004189229762 0.00022002502779165902 -0.00065436241487227208 0.00019959857452262955 0.00037737632256287795
leaf_weight=1249 391 23081 487 910 866 628 86 545 79 3296 142 1043 507 122
leaf_count=1249 391 23081 487 910 866 628 86 545 79 3296 142 1043 507 122
internal_value=6.01353e-06 3.2729e-05 0.000401274 0.000711006 1.05546e-06 0.000375423 -0.000237242 -4.19299e-05 0.000463361 -1.94982e-05 -0.000313464 -0.000532046 -0.000152877 0
internal_weight=33432 30204 2333 1397 27871 1494 3228 936 287 26377 2941 1185 1756 201
internal_count=33432 30204 2333 1397 27871 1494 3228 936 287 26377 2941 1185 1756 201
is_linear=0
shrinkage=0.02


Tree=5
num_leaves=15
num_cat=0
split_feature=38 32 54 56 38 30 35 34 19 32 30 24 26 30
split_gain=0.338713 0.498583 0.468647 0.397854 0.453014 0.63993 0.3527 0.458672 0.308479 0.912088 0.274875 0.250781 0.207801 0.0794976
threshold=0.78125000000000011 0.21875000000000003 -29.559018135070797 -12.658050537109373 0.30208332836627966 0.48958332836627966 0.13541666418313983 0.48958332836627966 0.95695969462394725 0.86458334326744091 0.17708333581686023 0.6600731909275056 0.36458332836627966 0.34375000000000006
decision_type=2 2 2 2 2 2 2 2 2 2 2 2 2 2
left_child=3 2 -2 4 10 -6 12 -8 11 -10 -1 -3 -5 -4
right_child=1 8 13 6 5 -7 7 -9 9 -11 -12 -13 -14 -15
leaf_value=-0.0011233791036576761 0.0017722237788804687 -0.00015204075271419359 0.00058754869760611114 -0.00032240787718225932 0.00029181316274649996 -0.0002506218970571674 0.00022419226029626979 9.9561793189672907e-06 0.0016775561009880399 -6.4237911627564956e-05 -0.00023636266908401773 -0.00049694613449350071 6.153064010680361e-05 -0.00018589233464383063
leaf_weight=156 93 5533 70 1352 1886 1582 6955 9878 129 850 2886 1091 831 133
leaf_count=156 93 5533 70 1352 1886 1582 6955 9878 129 850 2886 1091 831 133
internal_value=-1.36606e-05 -0.000128403 0.000653331 2.10921e-05 -0.000112621 3.86091e-05 6.79472e-05 9.97255e-05 -0.00016212 0.000156747 -0.000291235 -0.000212395 -0.000167435 0
internal_weight=33425 7899 296 25526 6510 3468 19016 16833 7603 979 3042 6624 2183 203
internal_count=33425 7899 296 25526 6510 3468 19016 16833 7603 979 3042 6624 2183 203
is_linear=0
shrinkage=0.02


Tree=6
num_leaves=15
num_cat=0
split_feature=25 25 62 36 1 58 36 1 58 58 25 29 28 47
split_gain=0.708199 0.548187 0.672362 0.469664 0.439491 0.446095 0.356395 0.31028 0.339681 0.498288 0.332082 0.377787 0.249117 0.160946
threshold=0.71875000000000011 0.34375000000000006 0.31041666865348821 0.94791665673255932 1.5000000000000002 -2.9507824182510372 0.78125000000000011 2.5000000000000004 -3.1503608226776119 -1.8857143521308897 0.78125000000000011 0.82291665673255932 0.57291665673255932 -2.5499999523162837
decision_type=2 2 2 2 2 2 2 2 2 2 2 2 2 2
left_child=1 4 13 -4 6 -6 -1 8 12 -10 -9 -12 -2 -3
right_child=7 2 3 -5 5 -7 -8 10 9 -11 11 -13 -14 -15
leaf_value=0.00010481707287875104 -0.0009134216194385304 0.00030445835491021473 0.00014648641087923955 0.00079070433943855521 0.00047099405092986555 -0.00038516335774155253 -0.00017398816618545892 -0.00053775000331647723 2.2483843288686298e-05 -0.00029265683646397981 0.00047312701724607636 -0.00054390228539705286 0 -0.00047948545995906013
leaf_weight=5469 433 82 11502 482 246 2247 2737 215 3271 4763 856 152 151 819
leaf_count=5469 433 82 11502 482 246 2247 2737 215 3271 4763 856 152 151 819
internal_value=-1.33788e-05 4.54368e-05 0.000133745 0.000174575 -5.90665e-05 -0.000291448 9.31161e-06 -0.000156284 -0.000199522 -0.000161967 0.00013147 0.000297005 -0.000673204 -0.000384085
internal_weight=33425 23584 12885 11984 10699 2493 8206 9841 8618 8034 1223 1008 584 901
internal_count=33425 23584 12885 11984 10699 2493 8206 9841 8618 8034 1223 1008 584 901
is_linear=0
shrinkage=0.02


Tree=7
num_leaves=13
num_cat=0
split_feature=25 39 25 36 26 30 58 42 38 41 26 16
split_gain=0.680753 0.526873 0.525942 0.512045 0.443941 0.335226 0.548436 0.313218 0.277433 0.266823 0.220975 0.0869607
threshold=0.71875000000000011 0.13541666418313983 0.34375000000000006 0.94791665673255932 0.15625000000000003 0.84375000000000011 -1.1540902853012083 1.5000000000000002 0.90625000000000011 0.68635097146034252 0.19791666418313983 1.0000000180025095e-35
decision_type=2 2 2 2 2 2 2 2 2 2 2 2
left_child=1 9 8 -4 -2 7 -7 -6 -3 10 -1 -11
right_child=4 2 3 -5 5 6 -8 -9 -10 11 -12 -13
leaf_value=-0.00079923686117697981 0.0011288566829510105 -3.1731142651332617e-06 0.00011899350207955677 0.00079000269118275734 -0.00052696368310603612 0.00031096790099714928 -0.00052455792908208919 -0.00016532367847650666 -0.00031805169655896184 -0.0012426806927023836 0.0005765933993047681 -0.00024673294481330029
leaf_weight=70 95 9194 12132 479 1199 1203 407 6937 1289 193 108 119
leaf_count=70 95 9194 12132 479 1199 1203 407 6937 1289 193 108 119
internal_value=-1.31016e-05 4.45503e-05 5.91984e-05 0.00014655 -0.000153219 -0.000168682 8.58409e-05 -0.00022154 -4.40103e-05 -0.000595521 0 -0.000940981
internal_weight=33425 23584 23094 12611 9841 9746 1610 8136 10483 490 178 312
internal_count=33425 23584 23094 12611 9841 9746 1610 8136 10483 490 178 312
is_linear=0
shrinkage=0.02


Tree=8
num_leaves=12
num_cat=0
split_feature=25 31 25 36 26 21 30 58 28 52 15
split_gain=0.653407 0.508451 0.507261 0.491633 0.427838 0.328718 0.321873 0.527192 0.301896 0.24753 0.100756
threshold=0.71875000000000011 0.13541666418313983 0.34375000000000006 0.94791665673255932 0.15625000000000003 1.0000000180025095e-35 0.84375000000000011 -1.1540902853012083 0.94791665673255932 -3.8223668336868282 1.0000000180025095e-35
decision_type=2 2 2 2 2 2 2 2 2 2 2
left_child=1 9 5 -4 -2 -3 8 -8 -6 10 -1
right_child=4 2 3 -5 6 -7 7 -9 -10 -11 -12
leaf_value=-0.0010078128224069421 0.0011080330986421084 0.00017009130902419803 0.00011676249040372192 0.00077446217868607143 -0.00024047011107198799 -0.00010258398772148803 0.00030478962067234726 -0.00051426902090210506 0.00043538721879636207 0.00028325811948305295 -0.00011041610008653473
leaf_weight=289 95 2202 12131 479 7890 8282 1203 407 246 73 128
leaf_count=289 95 2202 12131 479 7890 8282 1203 407 246 73 128
internal_value=-1.28678e-05 4.36008e-05 5.80047e-05 0.000143806 -0.000150151 -4.33206e-05 -0.000165365 8.38557e-05 -0.000217171 -0.000585127 -0.000786675
internal_weight=33425 23584 23094 12610 9841 10484 9746 1610 8136 490 417
internal_count=33425 23584 23094 12610 9841 10484 9746 1610 8136 490 417
is_linear=0
shrinkage=0.02


Tree=9
num_leaves=9
num_cat=0
split_feature=68 62 49 69 38 41 58 8
split_gain=0.365599 0.308531 0.274148 0.260527 0.256944 0.185756 0.132129 0.0789923
threshold=1.0000000180025095e-35 0.22986111044883731 2.5000000000000004 1.0000000180025095e-35 0.78125000000000011 0.70993158221244823 -1.2476190924644468 1.5000000000000002
decision_type=2 2 2 2 2 2 2 2
left_child=1 -1 4 6 -3 -4 -2 -8
right_child=3 2 5 -5 -6 -7 7 -9
leaf_value=-0.00090838308036327367 0 3.8316399437374178e-05 -0.0010319002887658906 0.0002801292667201921 -9.5805490945054028e-05 -3.26135167978468e-05 -0.0010296146024149446 0
leaf_weight=142 88 24984 163 94 7371 213 305 65
leaf_count=142 88 24984 163 94 7371 213 305 65
internal_value=-1.25687e-05 -3.32305e-06 2.13574e-07 -0.000519543 7.12711e-06 -0.000530371 -0.000728578 -0.000891192
internal_weight=33425 32873 32731 552 32355 376 458 370
internal_count=33425 32873 32731 552 32355 376 458 370
is_linear=0
shrinkage=0.02


Tree=10
num_leaves=15
num_cat=0
split_feature=38 54 54 34 58 38 38 16 43 37 38 58 37 32
split_gain=0.557766 0.540197 0.556702 0.47996 0.561161 0.401794 0.363954 0.363622 0.486595 0.355838 0.348693 0.314263 0.227985 0.140679
threshold=0.21875000000000003 -10.409402847290037 -1.6244421005249021 0.28125000000000006 -3.1503608226776119 0.86458334326744091 0.30208332836627966 1.0000000180025095e-35 1.5000000000000002 0.17708333581686023 0.23958333581686023 -2.0959707498550411 0.86458334326744091 0.23958333581686023
decision_type=2 2 2 2 2 2 2 2 2 2 2 2 2 2
left_child=3 9 5 7 13 -3 -4 11 -9 -2 -11 -1 -6 -5
right_child=1 2 6 4 12 -7 -8 8 -10 10 -12 -13 -14 -15
leaf_value=-0.00084899723217203907 -0.0010022485105931258 -0.0001521744980212975 0.0015556077978440693 -0.00018800670028331891 -6.2200542105449298e-06 -0.00065388934700125439 5.7869800694076252e-05 0.00093114452045640829 -0.00032093945961488062 0.00052422561110247973 6.6990020291496301e-05 -0.00021654140303092721 0.00069117864431479041 -0.0010957756122717491
leaf_weight=850 111 2336 62 191 3761 969 1655 154 518 698 21097 670 187 226
leaf_count=850 111 2336 62 191 3761 969 1655 154 518 698 21097 670 187 226
internal_value=-7.20952e-06 3.24563e-05 -0.000153164 -0.000172995 -4.63042e-05 -0.000306534 0.00013051 -0.000415102 0 7.59633e-05 8.27376e-05 -0.0005859 2.30881e-05 -0.000738411
internal_weight=33485 26928 5022 6557 4365 3305 1717 2192 672 21906 21795 1520 3948 417
internal_count=33485 26928 5022 6557 4365 3305 1717 2192 672 21906 21795 1520 3948 417
is_linear=0
shrinkage=0.02


Tree=11
num_leaves=15
num_cat=0
split_feature=38 54 54 34 50 38 15 43 37 37 44 38 33 54
split_gain=0.536817 0.518374 0.53627 0.460868 0.390879 0.385442 0.349899 0.468087 0.34276 0.340048 0.437579 0.334903 0.301194 0.252518
threshold=0.21875000000000003 -10.409402847290037 -1.6244421005249021 0.28125000000000006 1.0000000180025095e-35 0.86458334326744091 1.0000000180025095e-35 1.5000000000000002 0.17708333581686023 0.86458334326744091 1.0000000180025095e-35 0.23958333581686023 0.46875000000000006 -41.422346115112298
decision_type=2 2 2 2 2 2 2 2 2 2 2 2 2 2
left_child=3 8 5 6 -4 -3 12 -8 -2 13 -11 -10 -1 -5
right_child=1 2 4 9 -6 -7 7 -9 11 10 -12 -13 -14 -15
leaf_value=-0.00070563524759623163 -0.0009835511095383589 -0.0001491413995267588 0 -0.00082194013266615536 0.00079134864221184944 -0.00064091864893233894 0.00091344128604288455 -0.00031461829213361777 0.00051385990726542541 0.0019457879740940897 0 6.5650726008601622e-05 0 -4.9271638084451111e-05
leaf_weight=1247 111 2336 1430 175 287 969 154 518 698 68 121 21097 273 4001
leaf_count=1247 111 2336 1430 175 287 969 154 518 698 68 121 21097 273 4001
internal_value=-7.09236e-06 3.18095e-05 -0.000149996 -0.000169744 0.000128281 -0.000300563 -0.000407014 0 7.4441e-05 -4.54915e-05 0.000756399 8.11055e-05 -0.000574555 -8.7941e-05
internal_weight=33485 26928 5022 6557 1717 3305 2192 672 21906 4365 189 21795 1520 4176
internal_count=33485 26928 5022 6557 1717 3305 2192 672 21906 4365 189 21795 1520 4176
is_linear=0
shrinkage=0.02


Tree=12
num_leaves=14
num_cat=0
split_feature=28 28 65 61 31 61 30 30 25 37 26 36 41
split_gain=0.481126 0.64811 0.518947 0.508942 0.50649 0.491955 0.478196 0.312753 0.59231 0.281629 0.300108 0.253242 0.0618013
threshold=0.15625000000000003 0.21875000000000003 1.0000000180025095e-35 -55.05932426452636 0.13541666418313983 -30.441887855529782 0.94791665673255932 0.90625000000000011 0.61458334326744091 0.48958332836627966 0.32291667163372045 0.13541666418313983 0.39496223628520971
decision_type=2 2 2 2 2 2 2 2 2 2 2 2 2
left_child=2 4 7 12 -2 -6 -5 11 -9 10 -4 -1 -3
right_child=1 3 9 6 5 -7 -8 8 -10 -11 -12 -13 -14
leaf_value=0.00019588222686862532 -0.0011679115425795316 -0.00017196929728498266 0 -1.9637033316759384e-05 0.00080890984474858154 0.00016370205548706107 0.00036519072532917155 -0.00060152879259625419 0.0012611215077612523 -0.00022157512348273706 0.0017823162391781809 -0.00044546879151192791 -0.0012156016466679511
leaf_weight=223 72 90 92 26365 782 1460 1350 114 129 79 92 2491 146
leaf_count=223 72 90 92 26365 782 1460 1350 114 129 79 92 2491 146
internal_value=-6.96177e-06 1.71739e-05 -0.000239491 -8.7991e-06 0.000338467 0.000399713 -7.06444e-08 -0.000319929 0.000316283 0.000573851 0.00101453 -0.000385003 -0.000918261
internal_weight=33485 30265 3220 27951 2314 2242 27715 2957 243 263 184 2714 236
internal_count=33485 30265 3220 27951 2314 2242 27715 2957 243 263 184 2714 236
is_linear=0
shrinkage=0.02


Tree=13
num_leaves=15
num_cat=0
split_feature=38 54 28 54 14 36 38 38 30 36 37 28 28 26
split_gain=0.513387 0.498438 0.524729 0.51578 0.450231 0.424648 0.394062 0.351137 0.295745 0.32382 0.243961 0.414553 0.275117 0.192051
threshold=0.21875000000000003 -10.409402847290037 0.94791665673255932 -1.6244421005249021 1.0000000180025095e-35 0.96875000000000011 0.23958333581686023 0.30208332836627966 0.30208332836627966 0.17708333581686023 0.86458334326744091 0.42708332836627966 0.63541665673255932 0.44791667163372045
decision_type=2 2 2 2 2 2 2 2 2 2 2 2 2 2
left_child=8 2 6 5 -4 -3 -2 -5 9 -1 12 -12 -10 -11
right_child=1 3 4 7 -6 -7 -8 -9 10 13 11 -13 -14 -15
leaf_value=0.00021043910616968834 0.00052238845399447855 -0.00033371487423391728 0.0015870750208313649 0.0015252121580498559 0.00029751164816976984 0.0011187235024068263 3.6544084125510141e-05 5.4186983722846196e-05 -5.3798256795173256e-05 -0.00067882346995212632 -0.00012457237761711405 0.0015705089445443863 -0.00049533579346032171 0
leaf_weight=225 692 3236 148 62 593 69 20473 1655 4237 979 99 86 676 255
leaf_count=225 692 3236 148 62 593 69 20473 1655 4237 979 99 86 676 255
internal_value=-6.80915e-06 3.1221e-05 7.30364e-05 -0.000147028 0.000595979 -0.000294727 5.3565e-05 0.000125726 -0.000165884 -0.000420002 -8.86966e-05 0.000592221 -0.000119322 -0.00055167
internal_weight=33485 26928 21906 5022 741 3305 21165 1717 6557 1459 5098 185 4913 1234
internal_count=33485 26928 21906 5022 741 3305 21165 1717 6557 1459 5098 185 4913 1234
is_linear=0
shrinkage=0.02


Tree=14
num_leaves=15
num_cat=0
split_feature=38 58 30 41 41 34 56 30 63 16 52 52 58 49
split_gain=0.494082 0.482354 0.487084 0.605418 0.595845 0.435487 0.596821 0.423497 0.510603 0.333133 0.536469 0.452651 0.308833 0.30777
threshold=0.21875000000000003 -0.85714286565780629 0.26041667163372045 0.46978396177291876 0.71192815899848949 0.28125000000000006 -12.777777194976805 0.94791665673255932 2.5000000000000004 1.0000000180025095e-35 -3.0222222805023189 -7.3333332538604727 -3.4666665792465206 1.5000000000000002
decision_type=2 2 2 2 2 2 2 2 2 2 2 2 2 2
left_child=5 7 4 -4 -3 9 -7 12 -9 10 -1 -11 -2 -8
right_child=1 2 3 -5 -6 6 13 8 -10 11 -12 -13 -14 -15
leaf_value=-0.00078912588657297173 0.00041698332793549099 0.0011757631555135669 0.0016323323504013173 -0.00023633851145331956 -1.0892194777785448e-05 -0.00046871953421766791 0.00016000791318328896 0.00015326459231884332 0.0011756375678722431 0.00068812758930153766 3.1824403047008472e-06 -0.00039158713665947447 3.5527826393536373e-05 -0.00040282863557064037
leaf_weight=1097 896 225 60 4844 503 1011 2928 734 294 228 423 444 19372 426
leaf_count=1097 896 225 60 4844 503 1011 2928 734 294 228 423 444 19372 426
internal_value=-6.5973e-06 3.06994e-05 -0.000132505 -0.000206783 0.000337482 -0.000162663 -4.17721e-05 7.48332e-05 0.000471781 -0.000393278 -0.000556684 0 5.35353e-05 8.17833e-05
internal_weight=33485 26928 5632 4904 728 6557 4365 21296 1028 2192 1520 672 20268 3354
internal_count=33485 26928 5632 4904 728 6557 4365 21296 1028 2192 1520 672 20268 3354
is_linear=0
shrinkage=0.02


Tree=15
num_leaves=15
num_cat=0
split_feature=28 38 28 29 56 43 43 56 28 36 49 38 58 54
split_gain=0.385861 0.432419 0.722655 0.658567 0.465253 0.430919 0.327454 0.276472 0.219081 0.361805 0.306997 0.32896 0.17173 0.0441218
threshold=0.15625000000000003 0.78125000000000011 0.90625000000000011 0.96875000000000011 -15.333332538604735 1.5000000000000002 1.0000000180025095e-35 -12.658050537109373 0.11458333209156991 0.90625000000000011 1.5000000000000002 0.28125000000000006 -1.5572649240493772 -22.513797760009762
decision_type=2 2 2 2 2 2 2 2 2 2 2 2 2 2
left_child=8 2 7 -4 6 -6 -3 -2 10 12 11 -1 -10 -12
right_child=1 4 3 -5 5 -7 -8 -9 9 -11 13 -13 -14 -15
leaf_value=0.00026931110941217035 -8.6881734846123781e-05 0.0016325111897906872 0.00040476819565615703 0.0023811610452830791 -0.00023588423463000841 9.5035432647256279e-05 0 7.8730580944187857e-05 -0.0003088225982454684 0.00066110867319755184 -0.00097482005985367382 -0.00031097649771069723 -0.00088250327162706674 -0.0001080767331867043
leaf_weight=990 5266 91 962 72 5380 2117 142 16175 881 95 143 622 390 101
leaf_count=990 5266 91 962 72 5380 2117 142 16175 881 95 143 622 390 101
internal_value=-3.43528e-06 1.81693e-05 6.31144e-05 0.000578808 -0.000109854 -0.000139773 0.000742494 3.71058e-05 -0.000211705 -0.000405885 -5.69318e-05 3.2628e-05 -0.00050491 -0.000710231
internal_weight=33427 30205 22475 1034 7730 7497 233 21441 3222 1366 1856 1612 1271 244
internal_count=33427 30205 22475 1034 7730 7497 233 21441 3222 1366 1856 1612 1271 244
is_linear=0
shrinkage=0.02


Tree=16
num_leaves=12
num_cat=0
split_feature=68 28 36 24 47 35 26 54 70 47 36
split_gain=0.402591 0.423911 0.547787 0.78333 0.401961 0.343558 0.49604 0.345352 0.205042 0.242612 0.00835702
threshold=1.0000000180025095e-35 0.94791665673255932 0.65625000000000011 0.44543650746345526 -1.3499999642372129 0.13541666418313983 0.36458332836627966 -11.995239257812498 2.5000000000000004 3.4500000476837163 0.63541665673255932
decision_type=2 2 2 2 2 2 2 2 2 2 2
left_child=1 5 4 -4 -3 6 -1 -7 9 10 -2
right_child=8 2 3 -5 -6 7 -8 -9 -10 -11 -12
leaf_value=-0.00033673754776827994 -0.00059832643502014723 -0.00077770077445533839 0.0014663977505271339 -0.00034367992211196383 0.00029330951175050873 5.0593112680014884e-05 0.00015356623065271031 -0.00012692571327398413 0.00017132672913295707 1.3229445655747216e-05 -0.0013041893367799337
leaf_weight=2680 234 170 311 110 619 22451 1121 5408 89 93 141
leaf_count=2680 234 170 311 110 619 22451 1121 5408 89 93 141
internal_value=-3.33174e-06 5.16357e-06 0.000371676 0.000949246 3.19628e-05 -8.3028e-06 -0.000186866 1.53888e-05 -0.000533034 -0.000709628 -0.000937648
internal_weight=33427 32870 1210 421 789 31660 3801 27859 557 468 375
internal_count=33427 32870 1210 421 789 31660 3801 27859 557 468 375
is_linear=0
shrinkage=0.02


Tree=17
num_leaves=15
num_cat=0
split_feature=28 38 28 29 56 8 41 43 34 26 26 38 25 56
split_gain=0.367985 0.414655 0.686813 0.633137 0.447898 0.470143 0.353492 0.314573 0.216668 0.416719 0.602028 0.279109 0.202074 0.206647
threshold=0.15625000000000003 0.78125000000000011 0.90625000000000011 0.96875000000000011 -15.333332538604735 1.5000000000000002 0.76596277952194225 1.0000000180025095e-35 0.40625000000000006 0.42708332836627966 0.32291667163372045 0.26041667163372045 0.072916667908430113 -13.992074489593504
decision_type=2 2 2 2 2 2 2 2 2 2 2 2 2 2
left_child=8 2 6 -4 7 -6 -2 -3 12 10 -10 -11 -1 -14
right_child=1 4 3 -5 5 -7 -8 -9 9 11 -12 -13 13 -15
leaf_value=0.0004657065366091353 -3.8357414530391918e-05 0.0016009776309283096 0.00039356393574439374 0.0023324140775948764 -0.0002269642455928822 0.00013836739725536771 0.00012348516511266581 0 -0.00027019161350197261 2.4439134276830233e-05 0.00071926106581229248 -0.00075381204781697941 0 -0.00055269652018416363
leaf_weight=81 11407 91 962 72 5705 1792 10034 142 442 252 491 395 365 1196
leaf_count=81 11407 91 962 72 5705 1792 10034 142 442 252 491 395 365 1196
internal_value=-3.25954e-06 1.78246e-05 6.18484e-05 0.000564635 -0.000107522 -0.00013692 3.64673e-05 0.000728554 -0.000206662 -2.52563e-05 0.000230951 -0.00042356 -0.000368127 -0.000426296
internal_weight=33427 30205 22475 1034 7730 7497 21441 233 3222 1580 933 647 1642 1561
internal_count=33427 30205 22475 1034 7730 7497 21441 233 3222 1580 933 647 1642 1561
is_linear=0
shrinkage=0.02


Tree=18
num_leaves=12
num_cat=0
split_feature=68 28 61 29 30 29 35 26 54 29 69
split_gain=0.384365 0.400473 1.03503 0.522676 0.383362 0.355209 0.324848 0.475287 0.329481 0.219219 0.15111
threshold=1.0000000180025095e-35 0.94791665673255932 -10.974230289459227 0.59375000000000011 0.92708334326744091 0.53125000000000011 0.13541666418313983 0.36458332836627966 -11.995239257812498 0.38541667163372045 1.0000000180025095e-35
decision_type=2 2 2 2 2 2 2 2 2 2 2
left_child=1 6 4 -4 -3 9 7 -1 -8 -2 -7
right_child=5 2 3 -5 -6 10 8 -9 -10 -11 -12
leaf_value=-0.00032832658971615491 -0.00041808022310336432 0.00066367171484915948 -0.0010114747935717327 0.00020391391895034096 0.0023688942114512127 -0.0010915342798369044 4.9516453425411528e-05 0.00015146876168103214 -0.00012386369360734652 0.00082086943536996849 0
leaf_weight=2680 112 602 219 322 67 290 22451 1121 5408 92 63
leaf_count=2680 112 602 219 322 67 290 22451 1121 5408 92 63
internal_value=-3.11939e-06 5.16772e-06 0.000361407 -0.000259223 0.000889966 -0.00052071 -7.90354e-06 -0.000181553 1.51162e-05 5.62138e-05 -0.000903375
internal_weight=33427 32870 1210 541 669 557 31660 3801 27859 204 353
internal_count=33427 32870 1210 541 669 557 31660 3801 27859 204 353
is_linear=0
shrinkage=0.02


Tree=19
num_leaves=15
num_cat=0
split_feature=62 30 52 37 61 54 62 13 72 33 47 54 25 54
split_gain=0.303695 0.4386 0.497784 0.385719 0.34315 0.342718 0.436798 0.51392 0.367704 0.516771 0.363615 0.284459 0.230884 0.254842
threshold=0.32291667163372045 0.42708332836627966 -3.7047618627548213 0.46875000000000006 -49.183427810668938 -11.995239257812498 0.74652779102325451 1.0000000180025095e-35 1.0000000180025095e-35 0.94791665673255932 -0.35000000894069666 -1.6244421005249021 0.88541665673255932 -32.666666030883782
decision_type=2 2 2 2 2 2 2 2 2 2 2 2 2 2
left_child=1 2 4 -4 -1 6 10 -8 11 -10 -2 -7 13 -3
right_child=5 12 3 -5 -6 8 7 -9 9 -11 -12 -13 -14 -15
leaf_value=-0.00079896851804605717 0.00016168213873512001 -0.00011151693009455269 0.00084782760279874018 -0.00030127622187137604 -4.2355486694371928e-05 -0.00041520784852971021 0.0009115027150511741 -3.91512233658699e-05 -8.8089121372031908e-05 0.00055731310437022636 -1.4436950435081579e-05 1.8318510695857141e-05 0.00028957519194354182 -0.00090074350188603302
leaf_weight=306 6411 319 376 132 1317 1981 492 346 2948 586 16810 746 84 573
leaf_count=306 6411 319 376 132 1317 1981 492 346 2948 586 16810 746 84 573
internal_value=-3.02743e-06 -0.000191579 -2.0388e-05 0.00051044 -0.000200489 1.56801e-05 5.05642e-05 0.00049869 -0.000115072 1.43005e-05 3.33651e-05 -0.000289593 -0.000541826 -0.00064422
internal_weight=33427 3107 2131 508 1623 30320 24059 838 6261 3534 23221 2727 976 892
internal_count=33427 3107 2131 508 1623 30320 24059 838 6261 3534 23221 2727 976 892
is_linear=0
shrinkage=0.02


Tree=20
num_leaves=15
num_cat=0
split_feature=35 68 5 61 25 5 33 61 30 63 43 33 35 30
split_gain=0.621648 0.553825 0.570893 0.692881 0.330978 0.321224 0.271354 0.358307 0.35008 0.188011 0.202455 0.192949 0.159852 0.0344322
threshold=0.13541666418313983 1.0000000180025095e-35 0.42463037371635443 -35.756668090820305 0.90625000000000011 0.34542417526245123 0.40625000000000006 -23.194666862487789 0.51041665673255932 1.0000000180025095e-35 1.5000000000000002 0.36458332836627966 0.093750000000000014 0.28125000000000006
decision_type=2 2 2 2 2 2 2 2 2 2 2 2 2 2
left_child=6 2 5 -4 13 -2 9 8 -8 11 -11 -1 -9 -3
right_child=1 4 3 -5 -6 -7 7 12 -10 10 -12 -13 -14 -15
leaf_value=-7.0508205570465283e-05 1.4542023983643546e-05 -0.00011097322679260403 0.0017241371624053469 0.00019394579077143173 0.00056123859026062655 -0.00033074921897027342 -0.0001476508878794753 -3.1682939321171632e-05 -0.00088224025738369569 -0.00041474584944364498 0.0008121844790875913 -0.00085437021953494927 0.00043142528156484721 -0.00087454928670610706
leaf_weight=234 23097 95 118 4555 63 1122 1271 719 358 156 72 600 431 412
leaf_count=234 23097 95 118 4555 63 1122 1271 719 358 156 72 600 431 412
internal_value=-5.98532e-06 2.46206e-05 3.75247e-05 0.000239739 -0.00058632 -7.32784e-07 -0.000245505 -0.000131103 -0.000324829 -0.000522957 0 -0.00066095 0.000126392 -0.000774254
internal_weight=33303 29462 28892 4673 570 24219 3841 2779 1629 1062 228 834 1150 507
internal_count=33303 29462 28892 4673 570 24219 3841 2779 1629 1062 228 834 1150 507
is_linear=0
shrinkage=0.02


Tree=21
num_leaves=15
num_cat=0
split_feature=5 47 41 5 32 37 29 32 61 38 8 38 12 41
split_gain=0.524729 0.952181 0.740464 0.626125 0.549678 0.529382 0.427462 0.552199 0.389841 0.372601 0.37088 0.31375 0.27596 0.14137
threshold=0.42463037371635443 -1.1500000357627866 0.65255817770957958 0.90499591827392589 0.90625000000000011 0.38541667163372045 0.17708333581686023 0.36458332836627966 -47.684268951416009 0.052083333954215057 2.5000000000000004 0.55208334326744091 3.7749286890029912 0.84045881032943737
decision_type=2 2 2 2 2 2 2 2 2 2 2 2 2 2
left_child=6 4 3 -3 11 -4 7 10 -9 13 -1 -2 -11 -8
right_child=1 2 5 -5 -6 -7 9 8 -10 12 -12 -13 -14 -15
leaf_value=-0.00014017937087947041 0.00077659769292258039 0.0027749607671093157 -0.00021128642269306714 0 -0.00092902958172882716 0.00037579385032481715 -0.00095938227272459448 0.00048380673180023828 -0.00062841993716272412 1.0738903215541291e-05 0.00055100387026523726 -0.00024888911184797529 -0.00063794914562747163 0
leaf_weight=2534 155 83 712 65 398 3123 216 112 1401 23388 340 431 257 88
leaf_count=2534 155 83 712 65 398 3123 216 112 1401 23388 340 431 257 88
internal_value=-5.88954e-06 0.000182846 0.000323107 0.00169896 -0.000362765 0.00026138 -3.97208e-05 -0.000221154 -0.000530826 -5.588e-06 -5.01688e-05 0 2.6293e-06 -0.000692508
internal_weight=33303 4967 3983 148 984 3835 28336 4387 1513 23949 2874 586 23645 304
internal_count=33303 4967 3983 148 984 3835 28336 4387 1513 23949 2874 586 23645 304
is_linear=0
shrinkage=0.02


Tree=22
num_leaves=15
num_cat=0
split_feature=35 38 41 38 56 29 37 56 33 34 29 34 43 41
split_gain=0.593166 0.512992 0.456452 0.793638 0.438616 0.422138 0.367121 0.274811 0.260866 0.315701 0.350429 0.18932 0.316392 0.172282
threshold=0.13541666418313983 0.78125000000000011 0.99979010224342357 0.42708332836627966 -15.109401226043699 0.67708334326744091 0.44791667163372045 -10.222221851348875 0.40625000000000006 0.11458333209156991 0.57291665673255932 0.36458332836627966 1.5000000000000002 0.69669076800346386
decision_type=2 2 2 2 2 2 2 2 2 2 2 2 2 2
left_child=8 2 6 -4 5 -3 -2 -6 11 -10 -11 12 -1 -13
right_child=1 4 3 -5 7 -7 -8 -9 9 10 -12 13 -14 -15
leaf_value=-0.00084121610849134394 -2.205593197362329e-05 0 -0.00026616972569682172 0.0012424313896808072 -0.00041756143094237293 0.0018705543678209004 0.00014272948265291047 -8.5675762887708093e-05 -0.00058832156579586366 7.4537320939837255e-05 -0.00061504830368036448 0.00072902339764616705 0 -0.00045280048278746777
leaf_weight=674 10767 159 199 337 1260 75 10509 6156 485 1958 336 80 208 100
leaf_count=674 10767 159 199 337 1260 75 10509 6156 485 1958 336 80 208 100
internal_value=-5.75908e-06 2.41234e-05 7.41052e-05 0.000649893 -0.000115704 0.00070874 5.8421e-05 -0.000145147 -0.00023974 -0.000127405 -1.9564e-05 -0.000511849 -0.000632506 0
internal_weight=33303 29462 21812 536 7650 234 21276 7416 3841 2779 2294 1062 882 180
internal_count=33303 29462 21812 536 7650 234 21276 7416 3841 2779 2294 1062 882 180
is_linear=0
shrinkage=0.02


Tree=23
num_leaves=15
num_cat=0
split_feature=29 47 46 29 58 28 61 31 47 31 30 61 58 31
split_gain=0.467198 0.446695 0.757273 0.404804 0.436862 0.342476 1.36854 0.658413 0.37548 0.296199 0.285702 0.781265 0.432142 0.0845878
threshold=0.17708333581686023 -3.0499999523162837 2.5000000000000004 0.11458333209156991 -1.9047618508338926 0.94791665673255932 -16.059835433959957 0.40625000000000006 -0.74999999999999989 0.55208334326744091 0.26041667163372045 -49.183427810668938 -0.39999991655349726 0.30208332836627966
decision_type=2 2 2 2 2 2 2 2 2 2 2 2 2 2
left_child=1 2 -1 4 -3 10 7 -7 -8 -5 11 -2 -12 -4
right_child=5 3 13 9 -6 6 8 -9 -10 -11 12 -13 -14 -15
leaf_value=0.0022638298704838141 -0.00084922359387079875 0.00019943724379736436 -0.00063790836616566308 -0.00027864704438984789 -0.00038959468775484938 -0.0002075809374585882 -0.0010224864703993644 0.0013907343256524055 6.0566106995383459e-06 -0.00085177566572774976 1.1274661232526018e-05 0.00029321461282217818 -0.00029080380993659469 0.00022024339590317164
leaf_weight=70 247 1251 68 1804 822 103 178 464 447 531 22404 2790 2054 70
leaf_count=70 247 1251 68 1804 822 103 178 464 447 531 22404 2790 2054 70
internal_value=-5.64798e-06 -0.000192693 0.000672577 -0.000239196 -2.51187e-05 2.37976e-05 0.000354965 0.00106676 -0.000264497 -0.000419981 8.61407e-06 0.000191745 -1.33634e-05 -7.74113e-05
internal_weight=33303 4616 208 4408 2073 28687 1192 567 625 2335 27495 3037 24458 138
internal_count=33303 4616 208 4408 2073 28687 1192 567 625 2335 27495 3037 24458 138
is_linear=0
shrinkage=0.02


Tree=24
num_leaves=15
num_cat=0
split_feature=62 68 26 28 41 38 25 69 28 25 27 25 28 58
split_gain=0.485952 0.525789 0.427486 0.40972 0.784671 0.382536 0.321696 0.261294 0.257975 0.284438 0.198692 0.209731 0.167189 0.0907851
threshold=0.3145833313465119 1.0000000180025095e-35 0.34375000000000006 0.94791665673255932 0.83747425675392162 0.78125000000000011 0.90625000000000011 1.0000000180025095e-35 0.13541666418313983 0.55208334326744091 0.23958333581686023 0.80208334326744091 0.65625000000000011 -1.9047619700431822
decision_type=2 2 2 2 2 2 2 2 2 2 2 2 2 2
left_child=2 3 10 5 -5 -2 7 -3 13 -10 12 -12 -1 -4
right_child=1 6 8 4 -6 -7 -8 -9 9 -11 11 -13 -14 -15
leaf_value=-0.00053878915636249882 5.3652645474497874e-05 -0.00094867777120828103 0 0.00080247616541741023 -0.00021703020274891694 -0.00011761775867578053 0.00055081302641143265 0.00014872948197942033 0.00011437566610433723 0.0016759118801632591 -0.00021872141288490748 0.00078206980410887262 0.00024970043854541087 -0.00081996167557580127
leaf_weight=1581 22099 441 85 730 464 6789 63 68 178 78 500 90 75 62
leaf_count=1581 22099 441 85 730 464 6789 63 68 178 78 500 90 75 62
internal_value=-5.53571e-06 1.6336e-05 -0.000265448 2.84626e-05 0.00039084 1.26886e-05 -0.000578526 -0.000763352 0.000303123 0.000702281 -0.000377053 -2.41934e-05 -0.000490031 -0.000263348
internal_weight=33303 30654 2649 30082 1194 28888 572 509 403 256 2246 590 1656 147
internal_count=33303 30654 2649 30082 1194 28888 572 509 403 256 2246 590 1656 147
is_linear=0
shrinkage=0.02


Tree=25
num_leaves=8
num_cat=0
split_feature=62 65 39 62 36 36 47
split_gain=0.272922 0.226841 0.355217 0.303351 0.247216 0.674348 0.646207
threshold=0.89930555224418651 1.0000000180025095e-35 0.98958334326744091 0.7090277671813966 0.92708334326744091 0.78125000000000011 0.84999999403953563
decision_type=2 2 2 2 2 2 2
left_child=1 4 3 -3 5 -1 -6
right_child=-2 2 -4 -5 6 -7 -8
leaf_value=1.4570748275429004e-05 0.0012422322702239936 0.00025227910127395239 0.0015844777716617837 -0.00051858246192201839 0.00055907644150835097 -0.00024550609897262875 -0.00020967015607893305
leaf_weight=25190 63 1552 68 214 982 4708 730
leaf_count=25190 63 1552 68 214 982 4708 730
internal_value=3.43562e-06 2.07654e-07 0.000216531 0.000145676 -1.17624e-05 -2.57692e-05 0.000220203
internal_weight=33507 33444 1834 1766 31610 29898 1712
internal_count=33507 33444 1834 1766 31610 29898 1712
is_linear=0
shrinkage=0.02


Tree=26
num_leaves=9
num_cat=0
split_feature=63 64 58 62 58 27 36 61
split_gain=0.280507 0.479539 0.294396 0.403024 0.346989 0.320227 0.399792 0.278371
threshold=10.500000000000002 1.0000000180025095e-35 -0.4000000655651092 0.82986110448837291 -1.485714256763458 0.98958334326744091 0.71875000000000011 -34.839525222778313
decision_type=2 2 2 2 2 2 2 2
left_child=2 -2 3 4 -1 7 -7 -4
right_child=1 -3 5 -5 -6 6 -8 -9
leaf_value=-2.8869893546385159e-05 0 0.001839064844780498 0.00075752709267867943 -0.00097886984392722958 0.00011015885565701678 -0.00013083498265283803 0.00080749853289332888 -0.0004312263679650664
leaf_weight=19118 114 82 64 153 11370 760 224 1622
leaf_count=19118 114 82 64 153 11370 760 224 1622
internal_value=3.39164e-06 0.00074287 -5.36475e-07 1.6432e-05 2.23381e-05 -0.000202203 6.73976e-05 -0.000370931
internal_weight=33507 196 33311 30641 30488 2670 984 1686
internal_count=33507 196 33311 30641 30488 2670 984 1686
is_linear=0
shrinkage=0.02


Tree=27
num_leaves=11
num_cat=0
split_feature=63 54 66 35 44 47 65 56 24 39
split_gain=0.269459 0.458829 0.369174 0.255202 0.351861 0.381353 0.349409 0.426397 0.296579 0.263955
threshold=10.500000000000002 -0.99999904632568348 1.0000000180025095e-35 0.82291665673255932 1.5000000000000002 -0.84999999403953541 1.0000000180025095e-35 -6.226001262664794 0.30627943575382238 0.82291665673255932
decision_type=2 2 2 2 2 2 2 2 2 2
left_child=3 -2 -3 6 8 -6 9 -8 -5 -1
right_child=1 2 -4 4 5 -7 7 -9 -10 -11
leaf_value=-3.9942720852679211e-06 -0.00043346375014100756 0 0.0023375165233245265 -9.0653052473529795e-05 -0.00037775254396665766 0.00026614149359711767 0.0002150719231581903 0.001554591962904261 -0.00044148197448468069 0.00028918815778150776
leaf_weight=24047 62 64 70 3298 458 1526 1102 106 1493 1281
leaf_count=24047 62 64 70 3298 458 1526 1102 106 1493 1281
internal_value=3.31281e-06 0.000728085 0.00140051 -5.25239e-07 -0.00011059 0.00010654 2.68473e-05 0.000358514 -0.000204702 1.01311e-05
internal_weight=33507 196 134 33311 6775 1984 26536 1208 4791 25328
internal_count=33507 196 134 33311 6775 1984 26536 1208 4791 25328
is_linear=0
shrinkage=0.02


Tree=28
num_leaves=14
num_cat=0
split_feature=28 63 38 62 54 28 39 58 1 49 37 54 30
split_gain=0.372446 0.411447 0.507968 0.38288 0.338028 0.30206 0.608298 0.699572 0.291017 0.416801 0.286683 0.2235 0.0801737
threshold=0.90625000000000011 10.500000000000002 0.78125000000000011 0.65069442987442028 -21.55054950714111 0.82291665673255932 0.30208332836627966 -1.6335535049438474 1.5000000000000002 1.5000000000000002 0.21875000000000003 -13.999999046325682 0.69791665673255932
decision_type=2 2 2 2 2 2 2 2 2 2 2 2 2
left_child=5 2 3 -2 -4 8 7 -7 10 -10 -1 -8 -3
right_child=1 12 4 -5 -6 6 11 -9 9 -11 -12 -13 -14
leaf_value=-0.00051598838421219558 0.0001455759088031384 0.00029273461550474169 0.00040206949939772452 0.00099436840566905957 -0.00025711519117679757 1.4476800101926958e-05 -0.00016026844553411752 0.0021588817071169614 -4.6087781096197014e-05 -0.0005229032727786236 5.0725793164997372e-05 -0.00058276395498174801 0.0019432941909347263
leaf_weight=350 587 60 419 404 1065 340 1434 72 5847 856 21046 965 62
leaf_count=350 587 60 419 404 1065 340 1434 72 5847 856 21046 965 62
internal_value=3.26032e-06 0.00023341 0.000165967 0.000516814 -5.64349e-05 -1.54849e-05 -0.000212979 0.00047083 3.61563e-06 -0.00011051 4.03316e-05 -0.000339899 0.00135336
internal_weight=33507 2597 2475 991 1484 30910 2811 412 28099 6703 21396 2399 122
internal_count=33507 2597 2475 991 1484 30910 2811 412 28099 6703 21396 2399 122
is_linear=0
shrinkage=0.02


Tree=29
num_leaves=15
num_cat=0
split_feature=25 25 21 58 26 29 26 41 41 25 34 33 34 41
split_gain=0.263118 0.496054 0.494163 1.0483 0.498781 0.486789 0.543766 0.358511 0.491429 0.383772 0.323656 0.291224 0.229429 0.0815694
threshold=0.71875000000000011 0.40625000000000006 1.0000000180025095e-35 -3.3333333730697627 0.34375000000000006 0.30208332836627966 0.32291667163372045 0.62477165460586559 0.63714075088500988 0.88541665673255932 0.40625000000000006 0.44791667163372045 0.44791667163372045 0.4635144323110581
decision_type=2 2 2 2 2 2 2 2 2 2 2 2 2 2
left_child=1 2 3 -1 -4 10 -7 11 -9 -10 -3 13 -13 -2
right_child=7 5 4 -5 -6 6 -8 8 9 -11 -12 12 -14 -15
leaf_value=0.0019320231463227952 -0.00021938209434350331 8.7793559054097413e-05 0.00010854952292099586 9.5109220773186232e-05 -0.00020042639649857049 -0.00010859946200029847 0.00029538207877156551 0.0014998310841160057 -0.00018622556994768772 7.3323290207694101e-05 -0.0003557217890995242 -0.00064992880510104879 0.00023926941953164197 -0.0010568070958058039
leaf_weight=125 142 1495 2858 2614 7124 1578 6678 73 4619 4349 1103 174 283 292
leaf_count=125 142 1495 2858 2614 7124 1578 6678 73 4619 4349 1103 174 283 292
internal_value=3.22575e-06 4.01743e-05 -4.33658e-05 0.000191604 -0.000109944 0.000139885 0.000215717 -8.24264e-05 -4.2072e-05 -5.81769e-05 -9.33435e-05 -0.000465639 -6.16336e-05 -0.00083699
internal_weight=33507 23575 12721 2739 9982 10854 8256 9932 9041 8968 2598 891 457 434
internal_count=33507 23575 12721 2739 9982 10854 8256 9932 9041 8968 2598 891 457 434
is_linear=0
shrinkage=0.02


Tree=30
num_leaves=14
num_cat=0
split_feature=62 58 54 63 41 37 66 32 64 41 41 41 34
split_gain=0.641016 0.643492 0.994012 0.483304 0.417475 0.435635 0.416354 0.462194 0.329731 0.239679 0.164023 0.299805 0.115478
threshold=0.32291667163372045 -0.38095240294933314 -1.0000000180025095e-35 8.5000000000000018 0.28920249640941625 0.38541667163372045 1.0000000180025095e-35 0.15625000000000003 1.0000000180025095e-35 0.77727177739143383 0.48417231440544134 0.66558301448822033 0.36458332836627966
decision_type=2 2 2 2 2 2 2 2 2 2 2 2 2
left_child=4 6 9 -4 5 -1 7 -2 -8 -3 12 -12 -6
right_child=1 2 3 -5 10 -7 8 -9 -10 -11 11 -13 -14
leaf_value=-0.00015766524294815441 0.001045007616929386 -0.00026324895446869868 -0.00020702741582031005 0.00057819482277740141 -0.00088377915121413562 0.0016011316399825247 -0.00034932492334036037 0.00012692336894198799 1.668902893620932e-05 -0.00083513770948206003 9.0777473649878543e-05 -0.00038208001426288062 0
leaf_weight=93 222 662 610 586 325 87 1059 14035 12151 838 659 1882 69
leaf_count=93 222 662 610 586 325 87 1059 14035 12151 838 659 1882 69
internal_value=9.8207e-06 3.86308e-05 -0.000254215 0.000162379 -0.000262132 0.000617996 6.81685e-05 0.000143199 -1.13336e-05 -0.000598742 -0.000324438 -0.0002517 -0.000729451
internal_weight=33278 30163 2696 1196 3115 180 27467 14257 13210 1500 2935 2541 394
internal_count=33278 30163 2696 1196 3115 180 27467 14257 13210 1500 2935 2541 394
is_linear=0
shrinkage=0.02


Tree=31
num_leaves=15
num_cat=0
split_feature=58 27 35 26 56 63 22 56 0 61 66 13 41 30
split_gain=0.496536 1.04737 0.447406 0.579307 0.502474 0.436083 0.428487 0.331462 0.343736 0.328438 0.274323 0.239017 0.225224 0.143567
threshold=-0.38095240294933314 0.96875000000000011 0.093750000000000014 0.36458332836627966 -7.6666667461395255 8.5000000000000018 0.3478271365165711 -2.4444439411163326 1.0000000180025095e-35 -29.436951637268063 1.0000000180025095e-35 1.0000000180025095e-35 0.76975855231285106 0.26041667163372045
decision_type=2 2 2 2 2 2 2 2 2 2 2 2 2 2
left_child=2 12 3 9 -5 11 -7 10 -9 -1 -4 -3 13 -2
right_child=1 5 7 4 -6 6 -8 8 -10 -11 -12 -13 -14 -15
leaf_value=-6.8149156713881429e-05 0.00025439217113531554 -0.00055885489570137897 0.00010428291935365178 -3.4042256365100478e-05 0.0011427127659975828 0.00099517565821447668 -3.8248792225043681e-05 -5.7137745750855795e-05 0.00070425939952828876 -0.00066418087010336403 -2.1815394452441075e-05 0.0002028953242633078 -0.00081562207249186993 -0.00041965085861761286
leaf_weight=715 122 316 14103 575 174 364 219 308 614 1002 13091 280 886 509
leaf_count=715 122 316 14103 575 174 364 219 308 614 1002 13091 280 886 509
internal_value=9.60271e-06 -0.000249322 3.31416e-05 -0.000223107 0.000222097 0.000184404 0.000577873 5.63849e-05 0.000430101 -0.00042904 4.28563e-05 -0.000169926 -0.000598724 -0.000256477
internal_weight=33278 2696 30582 2466 749 1179 583 28116 922 1717 27194 596 1517 631
internal_count=33278 2696 30582 2466 749 1179 583 28116 922 1717 27194 596 1517 631
is_linear=0
shrinkage=0.02


Tree=32
num_leaves=14
num_cat=0
split_feature=62 58 27 63 66 36 40 47 56 37 64 64 38
split_gain=0.606477 0.595979 1.006 0.418105 0.388602 0.459494 0.320439 0.396403 0.412017 0.364613 0.316915 0.254502 0.182138
threshold=0.32291667163372045 -0.38095240294933314 0.96875000000000011 8.5000000000000018 1.0000000180025095e-35 0.94791665673255932 1.5000000000000002 -2.4500000476837154 -13.398412227630613 0.38541667163372045 1.0000000180025095e-35 1.0000000180025095e-35 0.88541665673255932
decision_type=2 2 2 2 2 2 2 2 2 2 2 2 2
left_child=6 4 12 -4 5 -2 9 8 -8 -1 -6 -9 -3
right_child=1 2 3 -5 10 -7 7 11 -10 -11 -12 -13 -14
leaf_value=-0.00020880677302678429 0.00011655922240409378 -0.0003881658346641182 -0.00016595924877567798 0.00056589766479587394 -0.0003422916716186377 0.00079055804672629331 0.0013245637074252156 -0.00052442207522276159 -7.8092664480209351e-05 0.001358259795050995 1.6536077750887033e-05 -3.2297694817521517e-05 -0.0009233327098831848
leaf_weight=97 13835 1002 596 583 1059 422 99 1881 287 94 12151 657 515
leaf_count=97 13835 1002 596 583 1059 422 99 1881 287 94 12151 657 515
internal_value=9.36608e-06 3.74055e-05 -0.000244358 0.00018046 6.58528e-05 0.000138343 -0.00025514 -0.000311535 0.000250485 0.000485517 -1.09066e-05 -0.000405385 -0.000586853
internal_weight=33278 30163 2696 1179 27467 14257 3115 2924 386 191 13210 2538 1517
internal_count=33278 30163 2696 1179 27467 14257 3115 2924 386 191 13210 2538 1517
is_linear=0
shrinkage=0.02


Tree=33
num_leaves=14
num_cat=0
split_feature=62 58 54 41 66 32 33 26 56 41 41 41 36
split_gain=0.582554 0.573274 0.879645 0.384501 0.373406 0.444762 0.262904 0.246224 0.241885 0.221555 0.161567 0.282304 0.0471013
threshold=0.32291667163372045 -0.38095240294933314 -1.0000000180025095e-35 0.28920249640941625 1.0000000180025095e-35 0.15625000000000003 0.94791665673255932 0.32291667163372045 -0.38095262646675104 0.7843013107776643 0.48417231440544134 0.66558301448822033 0.36458332836627966
decision_type=2 2 2 2 2 2 2 2 2 2 2 2 2
left_child=3 4 9 7 5 -2 -6 -1 -4 -3 12 -12 -5
right_child=1 2 8 10 6 -7 -8 -9 -10 -11 11 -13 -14
leaf_value=0 0.0010199911030738249 -0.00025217281710436415 -0.00047515859927541471 -0.0010557388044850674 -2.1437121704972433e-05 0.0001196287863764559 0.00084191122315299346 0.0014084834811917272 0.00028334525884011103 -0.00080066004264165022 9.3926626524288973e-05 -0.00036475815139119588 -0.00035071092190118783
leaf_weight=105 222 691 178 165 13076 14035 134 75 1018 809 659 1882 229
leaf_count=105 222 691 178 165 13076 14035 134 75 1018 809 659 1882 229
internal_value=9.14996e-06 3.66424e-05 -0.000239673 -0.000250071 6.45537e-05 0.000135615 -1.06621e-05 0.00059326 0.000151439 -0.000563931 -0.00031006 -0.000238032 -0.000710849
internal_weight=33278 30163 2696 3115 27467 14257 13210 180 1196 1500 2935 2541 394
internal_count=33278 30163 2696 3115 27467 14257 13210 180 1196 1500 2935 2541 394
is_linear=0
shrinkage=0.02


Tree=34
num_leaves=14
num_cat=0
split_feature=62 58 54 41 47 56 66 36 29 47 26 45 41
split_gain=0.559655 0.551554 0.845359 0.370449 0.384713 0.397257 0.358752 0.441097 0.288143 0.28199 0.237687 0.219745 0.211939
threshold=0.32291667163372045 -0.38095240294933314 -1.0000000180025095e-35 0.28920249640941625 -2.4500000476837154 -13.398412227630613 1.0000000180025095e-35 0.94791665673255932 0.78125000000000011 -0.45000000298023218 0.32291667163372045 1.5000000000000002 0.77727177739143383
decision_type=2 2 2 2 2 2 2 2 2 2 2 2 2
left_child=3 6 12 10 5 -5 7 -2 -8 -4 -1 -6 -3
right_child=1 2 9 4 11 -7 8 -9 -10 -11 -12 -13 -14
leaf_value=0 0.00011157282407785146 -0.00023567876909206165 -0.00031367098482755512 0.0013038484055862248 -0.00056872468105923966 -7.1907350572489076e-05 3.888716858178158e-05 0.00077193919032119047 -0.00018279005836354984 0.00034814208831203343 0.0013830289585762714 -0.00016212530687906857 -0.00077548885511027443
leaf_weight=105 13835 662 330 99 1412 287 10187 422 3023 866 75 1137 838
leaf_count=105 13835 662 330 99 1412 287 10187 422 3023 866 75 1137 838
internal_value=8.94185e-06 3.59001e-05 -0.000235101 -0.000245118 -0.000304085 0.00024949 6.32886e-05 0.000132943 -1.04087e-05 0.000148053 0.000582023 -0.000396254 -0.000553029
internal_weight=33278 30163 2696 3115 2935 386 27467 14257 13210 1196 180 2549 1500
internal_count=33278 30163 2696 3115 2935 386 27467 14257 13210 1196 180 2549 1500
is_linear=0
shrinkage=0.02


Tree=35
num_leaves=12
num_cat=0
split_feature=31 56 41 29 52 47 58 44 47 58 58
split_gain=0.433441 0.60014 0.392872 0.834045 0.709144 0.30624 0.705942 0.551782 0.23117 0.0483358 0.149322
threshold=0.13541666418313983 -9.5126991271972638 0.24674830585718158 0.44791667163372045 -3.2666667699813838 1.0000000180025095e-35 -0.96969705820083607 2.5000000000000004 0.050000000745058178 -3.1503608226776119 -2.7802196741104122
decision_type=2 2 2 2 2 2 2 2 2 2 2
left_child=1 9 3 4 -2 6 -4 -7 -3 -1 -11
right_child=2 8 5 -5 -6 7 -8 -9 -10 10 -12
leaf_value=-0.0012730371243791815 0.00014228662232989851 -0.00019184805816266595 0.00016193050224704519 -0.00051852976720707087 0.0030938895524312286 -6.189360650509113e-05 -0.00020992817264340376 0.00069068014054431527 0.0010701912221583452 0 -0.00081576174930717709
leaf_weight=154 84 74 9433 94 70 20067 2560 386 102 113 281
leaf_count=154 84 74 9433 94 70 20067 2560 386 102 113 281
internal_value=-3.41908e-06 -0.000485128 6.75273e-06 0.000787202 0.00169391 0 8.08008e-05 -4.64487e-05 0.000445595 -0.000822129 -0.000574307
internal_weight=33418 724 32694 248 154 32446 11993 20453 176 548 394
internal_count=33418 724 32694 248 154 32446 11993 20453 176 548 394
is_linear=0
shrinkage=0.02


Tree=36
num_leaves=12
num_cat=0
split_feature=32 56 28 61 24 61 58 25 54 25 25
split_gain=0.428184 0.532581 0.283808 0.523068 0.507732 0.31525 0.290999 0.642534 0.376251 0.178219 0.0708851
threshold=0.13541666418313983 -9.5126991271972638 0.94791665673255932 -10.974230289459227 0.3478271365165711 -4.3305504322051993 -0.8253968060016631 0.093750000000000014 -3.5746030807495113 0.59375000000000011 0.80208334326744091
decision_type=2 2 2 2 2 2 2 2 2 2 2
left_child=1 10 6 4 -4 -5 8 -8 -2 -3 -1
right_child=2 9 3 5 -6 -7 7 -9 -10 -11 -12
leaf_value=-0.00096690827093006651 1.4986189879574122e-05 -2.4825073394578755e-06 0.0010340898468533986 -0.0008216102468588996 -1.556256522051236e-05 0.00016465877703690933 0.00080515337459157029 -0.00019019525531169766 0.0008777403933245961 0.0011060648647750295 -0.00017041481433123569
leaf_weight=397 25851 89 474 181 239 346 259 5182 197 74 129
leaf_count=397 25851 89 474 181 239 346 259 5182 197 74 129
internal_value=-3.33778e-06 -0.000494244 6.50394e-06 0.000302558 0.000658235 -0.000143916 -4.59322e-06 -0.000138032 2.25462e-05 0.000412026 -0.000814503
internal_weight=33418 689 32729 1240 713 527 31489 5441 26048 163 526
internal_count=33418 689 32729 1240 713 527 31489 5441 26048 163 526
is_linear=0
shrinkage=0.02


Tree=37
num_leaves=12
num_cat=0
split_feature=31 56 41 52 36 58 41 47 45 58 58
split_gain=0.402307 0.556614 0.378794 0.521837 0.297153 0.82994 0.27979 0.220796 0.158028 0.0470865 0.143472
threshold=0.13541666418313983 -9.5126991271972638 0.24674830585718158 -3.2666667699813838 0.94791665673255932 -3.1999999284744258 0.42919048666954046 0.050000000745058178 1.5000000000000002 -3.1503608226776119 -2.7802196741104122
decision_type=2 2 2 2 2 2 2 2 2 2 2
left_child=1 9 3 8 6 -6 -4 -3 -2 -1 -11
right_child=2 7 4 -5 5 -7 -8 -9 -10 10 -12
leaf_value=-0.0012345440373008635 -0.00067348487771950766 -0.00019295833641436042 -0.00048847558423261014 0.0017969365803790945 0.0023285598116807448 0.00014999402418871906 -2.9206992979219112e-06 0.0010388570441441103 0.00058376996273017795 0 -0.00078568077262710116
leaf_weight=154 69 74 476 104 70 1062 30838 102 75 113 281
leaf_count=154 69 74 476 104 70 1062 30838 102 75 113 281
internal_value=-3.25027e-06 -0.000467353 6.52739e-06 0.000772857 0 0.00031765 -1.1063e-05 0.000426368 0 -0.000792363 -0.000548651
internal_weight=33418 724 32694 248 32446 1132 31314 176 144 548 394
internal_count=33418 724 32694 248 32446 1132 31314 176 144 548 394
is_linear=0
shrinkage=0.02


Tree=38
num_leaves=11
num_cat=0
split_feature=32 56 41 52 36 52 30 56 36 15
split_gain=0.397302 0.49341 0.351544 0.516065 0.29278 0.456644 0.278591 0.134533 0.0621999 0.0163609
threshold=0.13541666418313983 -9.5126991271972638 0.24674830585718158 -3.2666667699813838 0.94791665673255932 -8.9372296333312971 0.46875000000000006 -13.398412227630613 0.61458334326744091 1.0000000180025095e-35
decision_type=2 2 2 2 2 2 2 2 2 2
left_child=1 9 3 7 6 -6 -4 -2 -3 -1
right_child=2 8 4 -5 5 -7 -8 -9 -10 -11
leaf_value=-0.00091954353060425117 0.00063804666128228693 0.00071646691709756848 4.4808349393169157e-05 0.0017635648737528496 0.0017285348627377639 0.000176752834160071 -7.4327467453867317e-05 -0.00052723720194177424 0 -0.0003175780140992367
leaf_weight=369 60 92 16500 104 80 1050 14849 86 71 157
leaf_count=369 60 92 16500 104 80 1050 14849 86 71 157
internal_value=-3.16931e-06 -0.000476058 6.28875e-06 0.000741652 0 0.000315567 -1.09892e-05 0 0.00039331 -0.000784772
internal_weight=33418 689 32729 250 32479 1130 31349 146 163 526
internal_count=33418 689 32729 250 32479 1130 31349 146 163 526
is_linear=0
shrinkage=0.02


Tree=39
num_leaves=12
num_cat=0
split_feature=39 58 41 29 52 47 58 5 58 58 38
split_gain=0.368949 0.38706 0.351797 0.79896 0.647381 0.292612 0.672306 0.426585 0.0984184 0.0882393 0.129227
threshold=0.13541666418313983 -2.0000001192092891 0.24674830585718158 0.44791667163372045 -3.2666667699813838 1.0000000180025095e-35 -0.96969705820083607 0.64309346675872814 -1.8476191163063047 -3.1503608226776119 0.093750000000000014
decision_type=2 2 2 2 2 2 2 2 2 2 2
left_child=1 9 3 4 -2 6 -4 -7 -3 -1 -11
right_child=2 8 5 -5 -6 7 -8 -9 -10 10 -12
leaf_value=-0.0011975505764101758 0.00013924981588902681 0.00083806466488611136 0.00015805250159412002 -0.00053078403513805541 0.0029742958721442098 -7.6897747334194656e-05 -0.00020478617103996676 0.00022476183468140968 0 6.3216279226320763e-06 -0.00064896017933885265
leaf_weight=154 84 76 9433 94 70 18399 2560 2055 77 100 316
leaf_count=154 84 76 9433 94 70 18399 2560 2055 77 100 316
internal_value=-3.0572e-06 -0.000447832 6.27391e-06 0.000744789 0.00163461 0 7.88503e-05 -4.55368e-05 0.00034918 -0.000698241 -0.000447123
internal_weight=33418 723 32695 248 154 32447 11993 20454 153 570 416
internal_count=33418 723 32695 248 154 32447 11993 20454 153 570 416
is_linear=0
shrinkage=0.02


Tree=40
num_leaves=15
num_cat=0
split_feature=37 28 28 56 38 37 61 5 30 28 30 30 38 54
split_gain=0.284231 0.404222 0.405898 0.520735 0.31995 0.29598 0.543096 0.258611 0.595396 0.330798 0.195617 0.0725867 0.151449 0.111067
threshold=0.30208332836627966 0.17708333581686023 0.26041667163372045 -11.866666316986082 0.42708332836627966 0.92708334326744091 -33.458234786987298 0.42463037371635443 0.84375000000000011 0.21875000000000003 0.92708334326744091 0.59375000000000011 0.19791666418313983 -22.329573631286618
decision_type=2 2 2 2 2 2 2 2 2 2 2 2 2 2
left_child=1 11 3 -3 -4 7 -7 9 -9 -2 -8 13 -13 -1
right_child=5 2 4 -5 -6 6 10 8 -10 -11 -12 12 -14 -15
leaf_value=-0.00096248652344728641 0.0001522978781713973 -0.00012487494607561642 -0.00041787106002387709 0.0012834311455966316 3.3032080283172761e-05 0.0013554000713535258 -0.00043497834904181507 4.9681032901100255e-05 0.00068469813583980313 -3.9373595060686453e-05 0.00030648776727129319 0.00022181740927475471 -0.00087469779053016717 0
leaf_weight=355 4368 186 1148 179 1218 66 1341 3527 725 20181 121 100 68 91
leaf_count=355 4368 186 1148 179 1218 66 1341 3527 725 20181 121 100 68 91
internal_value=-1.399e-05 -0.000188879 -7.54968e-05 0.000524868 -0.000177996 4.68401e-06 -0.000264941 1.97524e-05 0.000163734 -4.41658e-06 -0.000358673 -0.000653578 -0.000127959 -0.000801773
internal_weight=33674 3345 2731 365 2366 30329 1528 28801 4252 24549 1462 614 168 446
internal_count=33674 3345 2731 365 2366 30329 1528 28801 4252 24549 1462 614 168 446
is_linear=0
shrinkage=0.02


Tree=41
num_leaves=15
num_cat=0
split_feature=47 25 33 28 61 60 41 52 31 6 25 15 70 28
split_gain=0.290305 1.01298 0.608029 0.568306 0.517132 0.5059 0.417291 0.410512 0.275167 0.460562 0.387088 0.256697 0.224124 0.157169
threshold=-0.84999999403953541 0.28125000000000006 0.92708334326744091 0.11458333209156991 -16.613991737365719 3.5000000000000004 0.80466929078102123 -6.5999999046325675 0.86458334326744091 1.0000000180025095e-35 0.94791665673255932 2.5000000000000004 1.0000000180025095e-35 0.88541665673255932
decision_type=2 2 2 2 2 2 2 2 2 2 2 2 2 2
left_child=1 4 3 -3 7 8 -7 -1 9 -2 -10 -6 -8 -4
right_child=5 2 13 -5 11 6 12 -9 10 -11 -12 -13 -14 -15
leaf_value=0.00053552566059180448 -6.3082814054488169e-05 -0.00066649706242327201 -0.0007923288078612934 0.00048946861465359415 -0.00046359928165429242 -4.3254822062758302e-05 0.0015676260770425287 -7.0921839135033751e-05 -0.00027980400380226989 0.00023622974655302853 0.00050688927919845879 0.00010617935468992556 0.00024791588755072776 0.00010788935590797747
leaf_weight=596 19661 159 211 3074 1593 200 161 1567 3408 2271 246 324 140 63
leaf_count=596 19661 159 211 3074 1593 200 161 1567 3408 2271 246 324 140 63
internal_value=-1.36774e-05 9.42939e-05 0.000344631 0.000424942 -0.000116246 -4.58649e-05 0.000574899 8.83259e-05 -5.89775e-05 -3.11034e-05 -0.000220388 -0.000356868 0.00104084 -0.000517234
internal_weight=33674 7587 3507 3233 4080 26087 501 2163 25586 21932 3654 1917 301 274
internal_count=33674 7587 3507 3233 4080 26087 501 2163 25586 21932 3654 1917 301 274
is_linear=0
shrinkage=0.02


Tree=42
num_leaves=15
num_cat=0
split_feature=25 37 38 61 30 25 33 46 25 58 38 56 26 58
split_gain=0.284785 0.425246 0.502042 0.443877 0.442895 0.417188 0.851311 0.553299 0.413305 0.39128 0.371139 0.653473 0.327112 0.314173
threshold=0.71875000000000011 0.34375000000000006 0.78125000000000011 -0.42363908886909479 0.92708334326744091 0.94791665673255932 0.94791665673255932 2.5000000000000004 0.59375000000000011 -1.4294372200965879 0.90625000000000011 -8.7333340644836408 0.86458334326744091 -2.7802196741104122
decision_type=2 2 2 2 2 2 2 2 2 2 2 2 2 2
left_child=1 8 3 -3 -4 10 7 -7 9 -1 12 -12 -2 -10
right_child=5 2 4 -5 -6 6 -8 -9 13 -11 11 -13 -14 -15
leaf_value=-0.00013411349318921567 -0.00015926294113921647 9.9911158285309785e-05 -0.00016531526749894167 0.00070266602821862634 0.00052546660560384663 -0.00055688066481083046 0.0022675030231475829 0.00028611699270074045 -0.00049714901670813564 -0.00067332611818758821 0.0012747832654934862 -3.607644521819077e-05 -0.00058771470583231982 0.00045654293214651373
leaf_weight=2592 6466 14117 4628 513 385 400 67 1239 152 731 176 731 854 623
leaf_count=2592 6466 14117 4628 513 385 400 67 1239 152 731 176 731 854 623
internal_value=-1.33734e-05 2.3567e-05 6.29709e-05 0.000122785 -0.000107527 -0.000103625 0.000174821 6.65334e-05 -0.000160192 -0.000260067 -0.000163908 0.000205355 -0.000212565 0.000240785
internal_weight=33674 23741 19643 14630 5013 9933 1706 1639 4098 3323 8227 907 7320 775
internal_count=33674 23741 19643 14630 5013 9933 1706 1639 4098 3323 8227 907 7320 775
is_linear=0
shrinkage=0.02


Tree=43
num_leaves=15
num_cat=0
split_feature=47 25 56 37 39 27 37 41 37 47 25 41 41 7
split_gain=0.277089 0.970668 1.16785 0.721907 0.674973 0.395876 0.390001 0.377754 0.355128 0.47344 0.262201 0.258785 0.550396 0.361855
threshold=-0.84999999403953541 0.28125000000000006 -18.333333015441891 0.76041665673255932 0.19791666418313983 0.84375000000000011 0.67708334326744091 0.92556488513946544 0.92708334326744091 3.4500000476837163 0.17708333581686023 0.78915703296661388 0.80913284420967113 1.0000000180025095e-35
decision_type=2 2 2 2 2 2 2 2 2 2 2 2 2 2
left_child=1 2 -1 4 -3 -5 11 -4 9 -8 -10 13 -13 -2
right_child=6 3 7 5 -6 -7 8 -9 10 -11 -12 12 -14 -15
leaf_value=0.0021112005314329169 1.6096078349735506e-05 -0.00026565069121283451 -0.00010543351224214041 0.00014137737860437483 0.0006223102119462244 -0.00074587025038607715 5.3577123875753865e-05 -0.00083996059806466848 0.00058510825828169332 0.00051669637370447598 -0.00032067344628772054 0.00054709754486289154 -5.049870389824542e-05 -0.0002191520220500538
leaf_weight=83 3578 362 3687 504 2341 300 3852 310 124 1191 1085 666 7215 8376
leaf_count=83 3578 362 3687 504 2341 300 3852 310 124 1191 1085 666 7215 8376
internal_value=-1.30926e-05 9.23776e-05 -0.000113641 0.00033746 0.000495579 -0.000169141 -4.45523e-05 -0.00016896 9.15439e-05 0.000167556 -0.000208103 -8.84775e-05 0 -0.000147103
internal_weight=33674 7587 4080 3507 2703 804 26087 3997 6252 5043 1209 19835 7881 11954
internal_count=33674 7587 4080 3507 2703 804 26087 3997 6252 5043 1209 19835 7881 11954
is_linear=0
shrinkage=0.02


Tree=44
num_leaves=15
num_cat=0
split_feature=37 36 39 26 26 26 60 56 61 33 63 46 39 61
split_gain=0.265969 0.315621 0.36379 0.413435 0.325711 0.231268 0.467984 0.422978 0.175464 0.570738 0.441973 0.287415 0.215482 0.208927
threshold=0.28125000000000006 0.94791665673255932 0.42708332836627966 0.48958332836627966 0.40625000000000006 0.86458334326744091 3.5000000000000004 -6.5619046688079825 -20.383831977844235 0.42708332836627966 1.5000000000000002 3.5000000000000004 0.17708333581686023 -8.6282787322998029
decision_type=2 2 2 2 2 2 2 2 2 2 2 2 2 2
left_child=8 5 4 -4 -3 7 -7 -2 9 12 13 -12 -1 -10
right_child=1 2 3 -5 -6 6 -8 -9 10 -11 11 -13 -14 -15
leaf_value=-0.00036942664616637763 -2.6935663492361383e-05 0.00037038561764848296 -0.00092180176854950115 0.00029368818366204023 0.001716978123127404 -0.00020984222740955084 0.0003632678157335576 0.00017298584622225865 2.9315049683705707e-05 -0.00092277148893723897 0.001103454170903812 -0.00012107239345486245 0.00032310701885693511 -0.00050595391960139727
leaf_weight=352 19772 370 138 471 110 4374 626 5353 480 472 184 81 347 544
leaf_count=352 19772 370 138 471 110 4374 626 5353 480 472 184 81 347 544
internal_value=-1.27973e-05 2.37255e-06 0.000336101 0 0.000743052 -9.11383e-06 -0.00013363 1.49043e-05 -0.000212769 -0.000391197 -3.3842e-05 0.000663325 0 -0.000237385
internal_weight=33674 31214 1089 609 480 30125 5000 25125 2460 1171 1289 265 699 1024
internal_count=33674 31214 1089 609 480 30125 5000 25125 2460 1171 1289 265 699 1024
is_linear=0
shrinkage=0.02


Tree=45
num_leaves=15
num_cat=0
split_feature=35 26 56 47 25 1 26 56 47 37 25 62 28 30
split_gain=0.363334 0.433885 0.287454 0.286254 0.330234 0.537145 0.44172 0.278118 0.256999 0.29499 0.211858 0.193165 0.251035 0.172794
threshold=0.093750000000000014 0.36458332836627966 -14.279221057891844 -3.5499999523162837 0.71875000000000011 1.5000000000000002 0.15625000000000003 -15.333332538604735 -3.7499999999999996 0.61458334326744091 0.17708333581686023 0.4673611074686051 0.48958332836627966 0.65625000000000011
decision_type=2 2 2 2 2 2 2 2 2 2 2 2 2 2
left_child=1 2 7 8 5 -5 -6 -1 9 -2 -4 12 -3 -10
right_child=3 11 10 4 6 -7 -8 -9 13 -11 -12 -13 -14 -15
leaf_value=-0.0002901816628196023 0.00054140246718939098 0.00022006202609717743 0 0.00013604720112635039 0.0013940586425639965 -9.7777316407606573e-05 -7.8727695666765859e-05 0.00080304680732044863 -0.0011600455070906017 -0.00089326949790120131 -0.00065123384507993862 0.0011443913432016765 -0.00077649518350760146 0
leaf_weight=267 155 579 209 16259 73 5074 9038 129 193 80 1120 65 112 67
leaf_count=267 155 579 209 16259 73 5074 9038 129 193 80 1120 65 112 67
internal_value=8.33257e-06 -0.000223268 -0.000401185 2.76039e-05 3.60214e-05 7.94797e-05 -6.35214e-05 2.52907e-05 -0.000442678 0 -0.00054261 0.000156463 2.28855e-05 -0.000866821
internal_weight=33420 2481 1725 30939 30444 21333 9111 396 495 235 1329 756 691 260
internal_count=33420 2481 1725 30939 30444 21333 9111 396 495 235 1329 756 691 260
is_linear=0
shrinkage=0.02


Tree=46
num_leaves=15
num_cat=0
split_feature=35 26 47 25 1 26 33 25 47 44 29 47 30 39
split_gain=0.348144 0.417176 0.275483 0.316846 0.516049 0.425948 0.272611 0.257454 0.247049 0.28789 0.176974 0.185361 0.166291 0.118155
threshold=0.093750000000000014 0.36458332836627966 -3.5499999523162837 0.71875000000000011 1.5000000000000002 0.15625000000000003 0.34375000000000006 0.17708333581686023 -3.7499999999999996 1.0000000180025095e-35 0.53125000000000011 0.75000000000000011 0.65625000000000011 0.46875000000000006
decision_type=2 2 2 2 2 2 2 2 2 2 2 2 2 2
left_child=1 6 8 4 -4 -5 -1 -8 9 -2 13 -12 -10 -3
right_child=2 10 3 5 -6 -7 7 -9 12 -11 11 -13 -14 -15
leaf_value=0.00066526255369940893 0.00059698109858788103 -0.00013663886753256192 0.00013332759518925864 0.0013689311676555211 -9.5824850902741289e-05 -7.7154534895046347e-05 4.325243591197899e-05 -0.00056536247227474939 -0.0011377680116328435 -0.00077998444730160283 0 0.0014738861660162608 0 0.0005301686260435316
leaf_weight=71 141 491 16259 73 5074 9038 272 1382 193 94 71 67 67 127
leaf_count=71 141 491 16259 73 5074 9038 272 1382 193 94 71 67 67 127
internal_value=8.14936e-06 -0.00021854 2.70257e-05 3.52949e-05 7.78716e-05 -6.21841e-05 -0.000393068 -0.000453516 -0.000434271 0 0.000153457 0.000779801 -0.000850112 0
internal_weight=33420 2481 30939 30444 21333 9111 1725 1654 495 235 756 138 260 618
internal_count=33420 2481 30939 30444 21333 9111 1725 1654 495 235 756 138 260 618
is_linear=0
shrinkage=0.02


Tree=47
num_leaves=12
num_cat=0
split_feature=35 61 61 29 47 41 47 62 41 47 29
split_gain=0.33254 0.300325 0.495648 0.368075 0.361605 0.713105 0.33959 0.29645 0.218608 0.194123 0.18484
threshold=0.093750000000000014 -10.297717571258543 -12.833220481872557 0.67708334326744091 -2.9500000476837154 0.67812439799308788 -2.3500000238418575 0.4673611074686051 0.28920249640941625 6.0999999046325692 0.94791665673255932
decision_type=2 2 2 2 2 2 2 2 2 2 2
left_child=7 2 6 -4 10 -6 -2 8 -1 -10 -3
right_child=1 4 3 -5 5 -7 -8 -9 9 -11 -12
leaf_value=0.00059451809525489809 0.00029288507926313186 -0.00053161314782200822 0.00020237524265847862 0.000939590112945235 0.0014750442062578504 -3.6193620570872342e-05 1.2531582169707042e-05 0.00091245109058288212 -0.00034989477111296337 0.00043408601948645263 0.00034306289740355624
leaf_weight=92 1967 828 1054 419 118 11026 15452 75 2209 105 75
leaf_count=92 1967 828 1054 419 118 11026 15452 75 2209 105 75
internal_value=7.99853e-06 2.64599e-05 7.66304e-05 0.000429526 -5.05566e-05 -1.73516e-05 4.54574e-05 -0.000213531 -0.000259823 -0.000304335 -0.000434637
internal_weight=33420 30939 18892 1473 12047 11144 17419 2481 2406 2314 903
internal_count=33420 30939 18892 1473 12047 11144 17419 2481 2406 2314 903
is_linear=0
shrinkage=0.02


Tree=48
num_leaves=15
num_cat=0
split_feature=35 26 61 61 15 25 47 61 56 56 25 8 40 24
split_gain=0.317957 0.398557 0.28861 0.476809 0.382046 0.366032 0.345601 0.335944 0.2739 0.268208 0.1977 0.176094 0.305143 0.12884
threshold=0.093750000000000014 0.36458332836627966 -10.297717571258543 -12.833220481872557 2.5000000000000004 0.11458333209156991 -2.9500000476837154 -14.054778099060057 -14.279221057891844 -15.333332538604735 0.17708333581686023 2.5000000000000004 3.5000000000000004 0.66445916891098034
decision_type=2 2 2 2 2 2 2 2 2 2 2 2 2 2
left_child=1 8 3 7 -5 13 -7 -2 9 -1 -10 12 -3 -4
right_child=2 11 5 4 -6 6 -8 -9 10 -11 -12 -13 -14 -15
leaf_value=-0.00027171912166205323 6.1688964339739514e-05 8.4364045227707275e-05 -0.00079767352576519163 0.00054038439718118777 -0.00042156002835599249 -0.00043388567406397598 1.630602986006475e-07 -0.00042994360654652645 0 0.00079927110759011157 -0.00062286702156436784 -0.00049875599726782011 0.0013737038174208174 0
leaf_weight=267 16860 560 336 1314 159 772 10879 559 209 129 1120 110 86 60
leaf_count=267 16860 560 336 1314 159 772 10879 559 209 129 1120 110 86 60
internal_value=7.91892e-06 -0.000208676 2.59834e-05 7.51735e-05 0.000421329 -4.94956e-05 -2.71598e-05 4.4574e-05 -0.000379451 3.65777e-05 -0.000517851 0.000154704 0.000301295 -0.0006436
internal_weight=33420 2481 30939 18892 1473 12047 11651 17419 1725 396 1329 756 646 396
internal_count=33420 2481 30939 18892 1473 12047 11651 17419 1725 396 1329 756 646 396
is_linear=0
shrinkage=0.02


Tree=49
num_leaves=15
num_cat=0
split_feature=35 26 41 19 47 28 32 7 28 14 27 61 62 28
split_gain=0.304527 0.383297 0.280934 0.594342 0.571922 0.49169 0.323071 0.30924 0.284604 0.243571 0.347912 0.251203 0.174825 0.240375
threshold=0.093750000000000014 0.36458332836627966 0.89751547574996959 0.38986502587795263 3.3500000238418584 0.82291665673255932 0.92708334326744091 1.0000000180025095e-35 0.76041665673255932 1.0000000180025095e-35 0.19791666418313983 -29.313605308532711 0.4673611074686051 0.48958332836627966
decision_type=2 2 2 2 2 2 2 2 2 2 2 2 2 2
left_child=1 9 6 5 -5 -4 8 -8 -2 10 -1 -11 13 -3
right_child=2 12 3 4 -6 -7 7 -9 -10 11 -12 -13 -14 -15
leaf_value=0.00025398075933784722 4.4346459251183725e-05 0.00021667659244606401 -8.4959855128656603e-05 -7.3417807749370394e-05 0.00058562741509632767 -0.00056029206875598799 0.00017477265319653922 -0.00037437924655613964 0.00022520532580956872 -7.819308533300809e-05 -0.0007885744305474035 -0.00076970273238030705 0.0010926985863136918 -0.00075810678179065384
leaf_weight=435 16242 579 5222 1095 930 1081 552 1224 4593 394 170 726 65 112
leaf_count=435 16242 579 5222 1095 930 1081 552 1224 4593 394 170 726 65 112
internal_value=7.74838e-06 -0.000204204 2.54395e-05 -7.27159e-05 0.000220531 -0.000170258 6.24889e-05 -0.000192468 8.52468e-05 -0.000371753 -1.28104e-05 -0.00054645 0.000151811 2.31994e-05
internal_weight=33420 2481 30939 8328 2025 6303 22611 1776 20835 1725 605 1120 756 691
internal_count=33420 2481 30939 8328 2025 6303 22611 1776 20835 1725 605 1120 756 691
is_linear=0
shrinkage=0.02


Tree=50
num_leaves=13
num_cat=0
split_feature=68 37 24 47 5 52 25 36 32 41 32 5
split_gain=0.364243 0.310143 0.401481 0.423283 0.405461 0.313786 0.517221 0.383391 0.239033 0.265768 0.12977 0.068586
threshold=1.0000000180025095e-35 0.44791667163372045 0.46838663518428808 4.1499998569488534 0.48662088811397558 -2.634920477867126 0.92708334326744091 0.40625000000000006 0.80208334326744091 0.95513665676116954 0.69791665673255932 0.34071649610996252
decision_type=2 2 2 2 2 2 2 2 2 2 2 2
left_child=1 5 4 -4 -3 7 -7 -1 10 -10 11 -2
right_child=8 2 3 -5 -6 6 -8 -9 9 -11 -12 -13
leaf_value=-0.00023755774722255843 -0.00076849431909145204 6.6193254672614453e-05 -0.00023425056428296668 0.00047389102165884371 0.00037106983455436493 4.0124263782454895e-05 0.0010158877458067851 -9.2589741968354385e-06 -0.0012280625209017092 0 0.00045322043885444774 0
leaf_weight=4942 86 11988 2615 365 2102 2874 233 7737 221 76 108 61
leaf_count=4942 86 11988 2615 365 2102 2874 233 7737 221 76 108 61
internal_value=0 8.28199e-06 6.78846e-05 -0.000139785 0.000113279 -5.4904e-05 0.00012214 -9.9915e-05 -0.000506111 -0.00088532 0 -0.000425634
internal_weight=33408 32856 17070 2980 14090 15786 3107 12679 552 297 255 147
internal_count=33408 32856 17070 2980 14090 15786 3107 12679 552 297 255 147
is_linear=0
shrinkage=0.02


Tree=51
num_leaves=13
num_cat=0
split_feature=68 37 61 25 52 52 25 36 32 32 61 56
split_gain=0.349591 0.297862 0.318645 0.50173 0.467855 0.302059 0.497209 0.368038 0.229702 0.124787 0.106288 0.0837131
threshold=1.0000000180025095e-35 0.44791667163372045 -28.167228698730465 0.093750000000000014 -3.2222222089767452 -2.634920477867126 0.92708334326744091 0.40625000000000006 0.80208334326744091 0.69791665673255932 -4.4346463680267325 -4.6363632678985587
decision_type=2 2 2 2 2 2 2 2 2 2 2 2
left_child=1 5 3 -3 -4 7 -7 -1 9 11 -10 -2
right_child=8 2 4 -5 -6 6 -8 -9 10 -11 -12 -13
leaf_value=-0.0002328142684366968 -0.00088035380420012355 0.00066032185620088792 0.00023361951279534188 -0.00017411405847517428 0 3.9324009484668969e-05 0.00099624443412816384 -9.0739837456242045e-06 -0.001193293951175831 0.00044478115593564921 -0.00015372564355211875 0
leaf_weight=4942 70 301 6514 3299 6956 2874 233 7737 181 108 116 77
leaf_count=4942 70 301 6514 3299 6956 2874 233 7737 181 108 116 77
internal_value=0 8.13575e-06 6.65567e-05 -9.74933e-05 0.000111917 -5.37724e-05 0.00011988 -9.79513e-05 -0.000495806 0 -0.000867523 -0.000417106
internal_weight=33408 32856 17070 3600 13470 15786 3107 12679 552 255 297 147
internal_count=33408 32856 17070 3600 13470 15786 3107 12679 552 255 297 147
is_linear=0
shrinkage=0.02


Tree=52
num_leaves=15
num_cat=0
split_feature=28 61 56 27 39 26 49 33 37 61 30 43 15 45
split_gain=0.352572 0.612118 0.507065 0.423132 0.407835 0.701222 0.466544 0.3078 0.216229 0.367883 0.284407 0.426309 0.247528 0.228002
threshold=0.71875000000000011 -9.9442858695983869 -7.0015873908996573 0.15625000000000003 0.46875000000000006 0.38541667163372045 1.5000000000000002 0.94791665673255932 0.26041667163372045 -9.5130810737609846 0.36458332836627966 1.5000000000000002 1.0000000180025095e-35 1.5000000000000002
decision_type=2 2 2 2 2 2 2 2 2 2 2 2 2 2
left_child=8 4 3 -3 5 -2 -6 -4 9 -1 11 -10 -11 -12
right_child=1 2 7 -5 6 -7 -8 -9 10 12 13 -13 -14 -15
leaf_value=-0.00052185305738009066 0.00019584663369337345 0.0015146809369325637 -0.00038440196978764275 8.396071517789686e-05 0.0002024424800297597 0.0010417647149627376 -0.00050611199524540167 0.00019678913241270746 2.0693989756347779e-05 -0.00021547266887020822 8.5899639779904187e-06 0.00053521559395700946 0.00077495688114847465 -0.00014565283129972317
leaf_weight=886 1273 82 1897 1842 2852 620 408 396 7032 186 6555 714 167 8498
leaf_count=886 1273 82 1897 1842 2852 620 408 396 7032 186 6555 714 167 8498
internal_value=0 0.000103691 -7.12744e-05 0.000161309 0.00025064 0.000486643 0.000106623 -0.000275003 -4.08865e-05 -0.000298894 -2.58884e-05 7.12034e-05 0.000204476 -7.71892e-05
internal_weight=33408 9370 4217 1924 5153 1893 3260 2293 24038 1239 22799 7746 353 15053
internal_count=33408 9370 4217 1924 5153 1893 3260 2293 24038 1239 22799 7746 353 15053
is_linear=0
shrinkage=0.02


Tree=53
num_leaves=15
num_cat=0
split_feature=28 61 56 37 39 35 62 33 28 28 61 45 31 62
split_gain=0.339236 0.587255 0.487502 0.416716 0.392202 0.421778 0.401901 0.296255 0.209056 0.64265 0.46269 0.388791 0.34777 0.423609
threshold=0.71875000000000011 -9.9442858695983869 -7.0015873908996573 0.40625000000000006 0.46875000000000006 0.13541666418313983 0.5840277671813966 0.94791665673255932 0.15625000000000003 0.21875000000000003 -55.05932426452636 1.0000000180025095e-35 0.26041667163372045 0.28819444775581365
decision_type=2 2 2 2 2 2 2 2 2 2 2 2 2 2
left_child=8 4 3 -3 5 -2 -6 -4 12 11 -11 -10 -1 -14
right_child=1 2 7 -5 6 -7 -8 -9 9 10 -12 -13 13 -15
leaf_value=-0.00045904392112206308 -0.00082655384781814755 -0.0002360266076823685 -0.00037674621819198294 0.00037264035262676501 -0.000304273462855632 0.0005461009097425905 0.00022550621577598507 0.00019293128558904818 -0.0004305084099580055 -0.00094974625549275121 -4.3597528586609043e-05 0.00038969770841548008 0.0012518727566514696 -9.3268499930657583e-05
leaf_weight=1204 76 644 1897 1280 705 1817 2555 396 231 223 18341 2069 90 1880
leaf_count=1204 76 644 1897 1280 705 1817 2555 396 231 223 18341 2069 90 1880
internal_value=0 0.000101785 -6.95115e-05 0.000158422 0.000245733 0.000477224 0.000104353 -0.000269343 -4.00325e-05 -1.59473e-05 -5.59639e-05 0.000297448 -0.000191631 -1.68895e-05
internal_weight=33408 9370 4217 1924 5153 1893 3260 2293 24038 20864 18564 2300 3174 1970
internal_count=33408 9370 4217 1924 5153 1893 3260 2293 24038 20864 18564 2300 3174 1970
is_linear=0
shrinkage=0.02


Tree=54
num_leaves=13
num_cat=0
split_feature=68 28 61 27 34 62 63 62 32 41 32 54
split_gain=0.335929 0.360524 0.569815 0.472083 0.383338 0.234911 0.414464 0.317147 0.221552 0.251599 0.119794 0.0688383
threshold=1.0000000180025095e-35 0.71875000000000011 -9.9442858695983869 0.15625000000000003 0.69791665673255932 0.74236112833023082 5.5000000000000009 0.59097221493721019 0.80208334326744091 0.95513665676116954 0.69791665673255932 -9.6650791168212873
decision_type=2 2 2 2 2 2 2 2 2 2 2 2
left_child=1 5 4 -4 -3 7 -7 -1 10 -10 11 -2
right_child=8 2 3 -5 -6 6 -8 -9 9 -11 -12 -13
leaf_value=-1.0762089390933215e-05 -0.00075329725095566282 0.00039345628354494277 0.0013226645886898042 -9.5079150619302392e-05 2.1135843464162559e-05 0.00077159728339085219 0 -0.0002039179873105421 -0.0011849282206926803 0 0.00043660041330189541 0
leaf_weight=18209 86 3149 87 3957 1886 382 935 4251 221 76 108 61
leaf_count=18209 86 3149 87 3957 1886 382 935 4251 221 76 108 61
internal_value=0 8.00037e-06 0.000115642 -5.70917e-05 0.000258214 -3.22856e-05 0.000223869 -4.82704e-05 -0.000485997 -0.000851015 0 -0.000408029
internal_weight=33408 32856 9079 4044 5035 23777 1317 22460 552 297 255 147
internal_count=33408 32856 9079 4044 5035 23777 1317 22460 552 297 255 147
is_linear=0
shrinkage=0.02


Tree=55
num_leaves=15
num_cat=0
split_feature=61 28 30 35 32 29 62 38 25 58 58 29 30 33
split_gain=0.473197 0.519628 0.892968 0.444821 0.32622 0.655277 0.582796 0.312824 0.265676 0.568343 0.358844 0.204626 0.186341 0.170308
threshold=-3.8947556018829341 0.88541665673255932 0.92708334326744091 0.80208334326744091 0.71875000000000011 0.76041665673255932 0.65069442987442028 0.80208334326744091 0.093750000000000014 -0.65945172309875477 -0.58901101350784291 0.32291667163372045 0.38541667163372045 0.40625000000000006
decision_type=2 2 2 2 2 2 2 2 2 2 2 2 2 2
left_child=1 8 3 -3 11 6 -6 -7 9 -1 -10 12 -2 -13
right_child=4 2 -4 -5 5 7 -8 -9 10 -11 -12 13 -14 -15
leaf_value=0.00010852622285173327 0.00058159464860663699 0.00043452556426334699 0.0015673305753331917 -0.0001259911560030826 -0.00025237565632589261 -1.1975685153732596e-05 0.00061984992335461847 -0.00063425772738727655 3.4214547336559797e-07 0.0014841675236821176 -0.00028233967702289374 -0.00079362590866232361 -0.00021341187989010532 -0.00030521972909395797
leaf_weight=1234 162 1194 200 988 434 768 843 652 21973 132 1935 424 366 2048
leaf_count=1234 162 1194 200 988 434 768 843 652 21973 132 1935 424 366 2048
internal_value=-1.31579e-05 2.03993e-05 0.000302434 0.000172061 -0.000179366 -1.18155e-05 0.000308126 -0.000313658 -5.4779e-06 0.000263881 -2.17873e-05 -0.000322913 0 -0.000399346
internal_weight=33353 27656 2382 2182 5697 2697 1277 1420 25274 1366 23908 3000 528 2472
internal_count=33353 27656 2382 2182 5697 2697 1277 1420 25274 1366 23908 3000 528 2472
is_linear=0
shrinkage=0.02


Tree=56
num_leaves=14
num_cat=0
split_feature=61 30 66 47 62 47 61 19 34 19 44 38 47
split_gain=0.455809 0.353144 0.535331 0.475366 0.351075 0.342524 0.799084 0.532753 0.308907 0.405228 0.287515 0.192043 0.188066
threshold=-3.8947556018829341 0.90625000000000011 1.0000000180025095e-35 -1.0000000180025095e-35 0.74791666865348827 -2.2499999999999996 -11.382324695587156 5.7189540863037118 0.94791665673255932 1.9803921580314638 2.5000000000000004 0.072916667908430113 6.0999999046325692
decision_type=2 2 2 2 2 2 2 2 2 2 2 2 2
left_child=1 5 3 -3 -4 6 -1 -7 11 10 -10 -2 -13
right_child=8 2 4 -5 -6 7 -8 -9 9 -11 -12 12 -14
leaf_value=0.00039002227440426826 0.00067107424532112324 0 -0.00019287658394059073 0.00081489052333517703 0.00077218263480015575 -3.9681961921894035e-05 -0.0002429921572858637 0.0015327446942412575 8.2052904236567533e-05 -0.0011547312044328259 0.0012052236316360046 -0.00031343279044691944 0.00016560210499039576
leaf_weight=2396 68 473 1050 827 165 21520 1147 78 1085 85 99 4065 295
leaf_count=2396 68 473 1050 827 165 21520 1147 78 1085 85 99 4065 295
internal_value=-1.28843e-05 2.00386e-05 0.000245679 0.000527771 -4.12721e-05 -1.8092e-06 0.000179374 -3.25121e-05 -0.000176018 8.71204e-05 0.000200204 -0.000255959 -0.000276198
internal_weight=33353 27656 2515 1300 1215 25141 3543 21598 5697 1269 1184 4428 4360
internal_count=33353 27656 2515 1300 1215 25141 3543 21598 5697 1269 1184 4428 4360
is_linear=0
shrinkage=0.02


Tree=57
num_leaves=14
num_cat=0
split_feature=28 38 42 27 41 31 58 41 72 26 24 24 27
split_gain=0.312277 0.476819 0.639687 0.395772 0.274577 0.401975 0.365676 0.316205 0.370318 0.297581 0.2208 0.365765 0.215923
threshold=0.90625000000000011 0.76041665673255932 2.5000000000000004 0.46875000000000006 0.96468091011047374 0.78125000000000011 -0.66666656732559193 0.96153119206428539 1.0000000180025095e-35 0.78125000000000011 1.0929288268089297 0.3210281133651734 0.82291665673255932
decision_type=2 2 2 2 2 2 2 2 2 2 2 2 2
left_child=4 10 -3 -4 7 12 -7 9 -9 -1 11 -2 -6
right_child=1 2 3 -5 5 6 -8 8 -10 -11 -12 -13 -14
leaf_value=1.1236203337029064e-05 0.00040296015829550578 0.0015170123160464092 0.00056763551215256898 -0.00026219853163218429 -0.00051214475421790858 0.00042922146402407386 -0.00028148799050479572 0.0013342056651910147 -0.00014208734532197316 -0.00015787186246004652 -0.00028167522501671452 0.0015199552142414554 0.0002783845499402187
leaf_weight=22817 713 95 261 1308 1406 544 583 142 82 5043 79 166 114
leaf_count=22817 713 95 261 1308 1406 544 583 142 82 5043 79 166 114
internal_value=-1.2555e-05 0.000195587 0 -0.000109296 -3.10108e-05 -0.000225853 4.45558e-05 -1.18753e-05 0.000721306 -1.86933e-05 0.000549173 0.00064826 -0.000438619
internal_weight=33353 2622 1664 1569 30731 2647 1127 28084 224 27860 958 879 1520
internal_count=33353 2622 1664 1569 30731 2647 1127 28084 224 27860 958 879 1520
is_linear=0
shrinkage=0.02


Tree=58
num_leaves=14
num_cat=0
split_feature=25 41 40 25 2 41 25 28 28 52 41 28 38
split_gain=0.334956 0.615324 0.420123 0.402897 0.299467 0.517128 0.667385 0.501303 0.773934 0.418361 0.369782 0.174209 0.138629
threshold=0.71875000000000011 0.62477165460586559 2.5000000000000004 0.88541665673255932 1.0000000180025095e-35 0.99979010224342357 0.55208334326744091 0.21875000000000003 0.15625000000000003 -13.384848117828367 0.94933715462684642 0.072916667908430113 0.65625000000000011
decision_type=2 2 2 2 2 2 2 2 2 2 2 2 2
left_child=4 11 -3 -4 7 9 -7 8 -1 -6 -9 -2 -13
right_child=1 2 3 -5 5 6 -8 10 -10 -11 -12 12 -14
leaf_value=2.4291197879839754e-05 0.0001152902413159609 0.0013639709537411914 -0.00020516293487857413 6.2782948462936929e-05 0.00088100921090056251 0 0.0020812932685017587 5.801676538947769e-05 0.00074683979822096427 -0.00012763826302537683 -0.00035502849478979368 -0.00079982061615929353 0
leaf_weight=1467 72 73 4535 4273 156 145 92 12304 1062 7427 917 713 117
leaf_count=1467 72 73 4535 4273 156 145 92 12304 1062 7427 917 713 117
internal_value=-1.22467e-05 -0.000110991 -5.76893e-05 -7.29675e-05 2.79137e-05 -7.18831e-05 0.00082369 7.87441e-05 0.000336992 -0.000103347 2.7659e-05 -0.000608693 -0.000695864
internal_weight=33353 9783 8881 8808 23570 7820 237 15750 2529 7583 13221 902 830
internal_count=33353 9783 8881 8808 23570 7820 237 15750 2529 7583 13221 902 830
is_linear=0
shrinkage=0.02


Tree=59
num_leaves=15
num_cat=0
split_feature=61 28 54 52 19 41 29 32 29 31 19 25 39 14
split_gain=0.426134 0.488187 1.16836 0.605814 0.372219 0.337306 0.437649 0.309785 0.630167 0.698553 0.408835 0.267269 0.225796 0.325127
threshold=-3.8947556018829341 0.88541665673255932 -19.398411750793453 -3.019047617912292 0.55096837878227245 0.95675975084304821 0.73958334326744091 0.71875000000000011 0.76041665673255932 0.65625000000000011 1.1834734082221987 0.093750000000000014 0.57291665673255932 1.0000000180025095e-35
decision_type=2 2 2 2 2 2 2 2 2 2 2 2 2 2
left_child=1 5 3 -3 -4 11 -7 12 9 -9 -10 -1 13 -2
right_child=7 2 4 -5 -6 6 -8 8 10 -11 -12 -13 -14 -15
leaf_value=0.00025746754228287908 -0.00068463119816265978 0.00055455611794130179 -0.00025144270654169949 0.0019701896152810421 0.00053704572654010465 0.0015354904637206346 -0.00027117224707119708 -0.0006129969608399176 -0.00011432295315193408 0.00054256785293800406 -0.00099682550890589942 -2.8752379676580982e-05 -0.00053398631900574344 -7.0981874659254739e-06
leaf_weight=1366 363 838 1095 159 290 120 61 240 1147 1037 273 23727 1165 1472
leaf_count=1366 363 838 1095 159 290 120 61 240 1147 1037 273 23727 1165 1472
internal_value=-1.1931e-05 1.98825e-05 0.000293253 0.000814106 -6.98505e-05 -5.17544e-06 0.000835089 -0.000169686 -6.3552e-06 0.000307362 -0.000302627 -1.22974e-05 -0.000309465 -0.00015437
internal_weight=33353 27656 2382 997 1385 25274 181 5697 2697 1277 1420 25093 3000 1835
internal_count=33353 27656 2382 997 1385 25274 181 5697 2697 1277 1420 25093 3000 1835
is_linear=0
shrinkage=0.02


Tree=60
num_leaves=15
num_cat=0
split_feature=58 54 36 47 54 31 47 41 18 25 63 64 25 5
split_gain=0.264578 0.396281 0.566742 0.651993 0.457881 0.427913 0.401991 0.38607 0.473925 0.417718 0.416576 0.450776 0.277317 0.21623
threshold=-0.58901101350784291 -3.9952392578124996 0.40625000000000006 0.050000000745058178 -8.0589733123779279 0.90625000000000011 0.94999998807907116 0.73468494415283214 1.0000000180025095e-35 0.23958333581686023 8.5000000000000018 1.0000000180025095e-35 0.88541665673255932 0.30911974608898168
decision_type=2 2 2 2 2 2 2 2 2 2 2 2 2 2
left_child=1 4 5 -4 6 -3 -1 8 -2 -10 12 -12 -9 -6
right_child=7 2 3 -5 13 -7 -8 10 9 -11 11 -13 -14 -15
leaf_value=0.00011051981185858869 -1.5169544230130586e-05 -0.00079097440652549269 9.1317347674207248e-05 0.0020142518894539939 -0.00012942184836626903 0.0010181842662700235 -3.9895873361881747e-05 -0.00051418383934636561 0.002187613606816385 0.0001226719285433109 -0.00028700740648185749 0.00063386775035271668 7.484806376859682e-05 -0.00082677415168354285
leaf_weight=14398 696 152 168 154 554 65 13771 1745 74 122 458 366 319 338
leaf_count=14398 696 152 168 154 554 65 13771 1745 74 122 458 366 319 338
internal_value=1.15269e-05 3.22135e-05 0.000567006 0.00109812 2.14532e-05 -0.000143238 3.62857e-05 -0.000144909 0.000205169 0.00105555 -0.00026021 0.000100146 -0.000413556 -0.000420888
internal_weight=33380 29600 539 322 29061 217 28169 3780 892 196 2888 824 2064 892
internal_count=33380 29600 539 322 29061 217 28169 3780 892 196 2888 824 2064 892
is_linear=0
shrinkage=0.02


Tree=61
num_leaves=15
num_cat=0
split_feature=58 41 18 25 63 64 35 62 38 12 62 12 38 15
split_gain=0.253223 0.371477 0.458776 0.400956 0.399734 0.433474 0.368659 0.440412 0.473213 0.324934 0.323579 0.294949 0.285826 0.26223
threshold=-0.58901101350784291 0.73468494415283214 1.0000000180025095e-35 0.23958333581686023 8.5000000000000018 1.0000000180025095e-35 0.28125000000000006 0.38402777910232549 0.072916667908430113 1.8693221211433413 0.70486110448837291 1.1976477503776553 0.21875000000000003 1.0000000180025095e-35
decision_type=2 2 2 2 2 2 2 2 2 2 2 2 2 2
left_child=6 2 -2 -4 11 -6 7 12 -9 10 -8 -3 -1 -11
right_child=1 4 3 -5 5 -7 9 8 -10 13 -12 -13 -14 -15
leaf_value=-0.00014204506501808579 -1.4869601000100375e-05 -0.00048930809670052903 0.0021481298637099386 0.00012036946759774134 -0.00028136579903410228 0.0006214615706613357 6.2163307916596064e-05 0.0010703974018494288 -0.00036119076331919328 -0.00060253869021131151 0.0003125770354790312 0.0002370193094835369 0.00013358739050834076 0.00013209530105992752
leaf_weight=2641 696 1854 74 122 458 366 17896 82 2396 488 2402 210 3442 253
leaf_count=2641 696 1854 74 122 458 366 17896 82 2396 488 2402 210 3442 253
internal_value=1.13139e-05 -0.000141707 0.000201474 0.00103821 -0.000254873 9.77286e-05 3.15635e-05 -7.78816e-05 -0.000302481 7.70609e-05 9.28929e-05 -0.000405126 1.06057e-05 -0.000326278
internal_weight=33380 3780 892 196 2888 824 29600 8561 2478 21039 20298 2064 6083 741
internal_count=33380 3780 892 196 2888 824 29600 8561 2478 21039 20298 2064 6083 741
is_linear=0
shrinkage=0.02


Tree=62
num_leaves=15
num_cat=0
split_feature=22 28 52 32 35 56 25 49 32 27 56 56 35 39
split_gain=0.241111 0.293057 0.475661 0.383152 0.270274 0.506989 0.395382 0.264354 0.246201 0.327759 0.226952 0.499528 0.315613 0.114809
threshold=1.709526598453522 0.38541667163372045 -3.8874458074569698 0.55208334326744091 0.093750000000000014 -6.5619046688079825 0.23958333581686023 1.0000000180025095e-35 0.76041665673255932 0.55208334326744091 -8.9047617912292463 -8.9086151123046857 0.19791666418313983 0.40625000000000006
decision_type=2 2 2 2 2 2 2 2 2 2 2 2 2 2
left_child=4 2 3 -2 5 6 -1 -7 13 -10 11 -6 -12 -3
right_child=1 8 -4 -5 10 7 -8 -9 9 -11 12 -13 -14 -15
leaf_value=0.0002035252631890892 0 0 -0.00049980403123230772 0.0019639201355831967 7.7946242591048028e-05 0.001465373865195683 -0.00040980806084717664 0 0.0010674911280473074 -0.00035058614118654928 -0.00037648573932180947 0.00089516850904776499 8.6726174924702093e-06 -0.00096194591974739312
leaf_weight=497 70 70 137 76 13774 97 1769 78 67 391 891 304 14814 345
leaf_count=497 70 70 137 76 13774 97 1769 78 67 391 891 304 14814 345
internal_value=1.11257e-05 -0.000270395 0.000239436 0.00105291 2.191e-05 -0.000178615 -0.000266248 0.000808856 -0.000459042 -8.5455e-05 3.90599e-05 9.75115e-05 -1.20865e-05 -0.000814643
internal_weight=33380 1156 283 146 32224 2441 2266 175 873 458 29783 14078 15705 415
internal_count=33380 1156 283 146 32224 2441 2266 175 873 458 29783 14078 15705 415
is_linear=0
shrinkage=0.02


Tree=63
num_leaves=15
num_cat=0
split_feature=47 26 35 37 56 47 42 39 34 7 39 46 34 56
split_gain=0.245919 0.542243 0.585932 0.432575 0.427779 0.617749 0.344 0.321762 0.377299 0.30455 0.278846 0.258412 0.287848 0.255086
threshold=0.94999998807907116 0.78125000000000011 0.28125000000000006 0.55208334326744091 -11.995238304138182 3.7500000000000004 2.5000000000000004 0.82291665673255932 0.90625000000000011 1.0000000180025095e-35 0.67708334326744091 1.5000000000000002 0.65625000000000011 -12.658050537109373
decision_type=2 2 2 2 2 2 2 2 2 2 2 2 2 2
left_child=1 2 6 11 5 -5 -1 8 -3 -9 -6 12 -2 -4
right_child=3 7 13 4 10 -7 -8 9 -10 -11 -12 -13 -14 -15
leaf_value=-0.00017284127931327929 -0.0007366985619527526 -0.00063962816209151441 1.5567856621890618e-05 0.00010466321663121985 -0.000200437627193567 0.0015392869273524973 0.00022700661164930564 0.00026990781777732785 0.00073886739356177197 -0.00016980596942828806 0.00016557249332043098 -7.9957434072576718e-05 3.0782079232520743e-05 0.00027931115172385892
leaf_weight=3154 511 750 2081 388 1208 193 1145 859 69 2186 2507 11302 236 6791
leaf_count=3154 511 750 2081 388 1208 193 1145 859 69 2186 2507 11302 236 6791
internal_value=1.09217e-05 6.45592e-05 0.000126472 -4.37613e-05 0.000126284 0.000629615 -6.14779e-05 -0.000141139 -0.000493283 -3.88288e-05 4.10107e-05 -0.000106092 -0.000469981 0.00021977
internal_weight=33380 17035 13171 16345 4296 581 4299 3864 819 3045 3715 12049 747 8872
internal_count=33380 17035 13171 16345 4296 581 4299 3864 819 3045 3715 12049 747 8872
is_linear=0
shrinkage=0.02


Tree=64
num_leaves=15
num_cat=0
split_feature=47 36 26 27 44 19 35 36 71 25 40 28 33 54
split_gain=0.236081 0.524608 0.527844 0.602965 0.495918 0.697365 0.57949 0.495429 0.48538 0.462111 0.450091 0.331929 0.225381 0.0701953
threshold=0.94999998807907116 0.92708334326744091 0.78125000000000011 0.17708333581686023 2.5000000000000004 0.65574476122856151 0.90625000000000011 0.98958334326744091 1.0000000180025095e-35 0.34375000000000006 2.5000000000000004 0.44791667163372045 0.76041665673255932 -3.9952392578124996
decision_type=2 2 2 2 2 2 2 2 2 2 2 2 2 2
left_child=1 2 3 -1 8 13 -7 10 11 -10 -3 -2 -4 -6
right_child=4 7 12 -5 5 6 -8 -9 9 -11 -12 -13 -14 -15
leaf_value=-0.00024870771890658181 7.5935391306983517e-05 -0.00046218818617523266 -0.00039967878456533391 0.00015338839414624235 -0.00051033690733754116 0 0.002940948381076885 -0.00060065371027359594 0.00041974285195545596 -0.00062826336405548563 0.00081183022982413914 -0.00011285913417926869 -5.4095704340726656e-05 0.00025734622776508331
leaf_weight=1695 6716 101 1225 10639 84 61 71 122 173 985 855 8193 2398 62
leaf_count=1695 6716 101 1225 10639 84 61 71 122 173 985 855 8193 2398 62
internal_value=1.07338e-05 6.32966e-05 3.29858e-05 9.63845e-05 -4.28291e-05 0.000777889 0.00179581 0.000490006 -5.86538e-05 -0.000452738 0.000653767 -2.64777e-05 -0.000177075 -5.80309e-05
internal_weight=33380 17035 15957 12334 16345 278 132 1078 16067 1158 956 14909 3623 146
internal_count=33380 17035 15957 12334 16345 278 132 1078 16067 1158 956 14909 3623 146
is_linear=0
shrinkage=0.02


Tree=65
num_leaves=15
num_cat=0
split_feature=25 25 36 47 62 1 52 37 1 30 38 30 62 12
split_gain=0.343553 0.455189 0.730591 0.687607 0.441677 0.357012 0.443704 0.395116 0.305928 0.532435 0.405543 0.376828 0.818187 0.43899
threshold=0.71875000000000011 0.40625000000000006 0.92708334326744091 1.9499999880790713 0.30486111342906957 1.5000000000000002 -2.9014651775360103 0.26041667163372045 2.5000000000000004 0.40625000000000006 0.48958332836627966 0.84375000000000011 0.4673611074686051 0.58309531211853038
decision_type=2 2 2 2 2 2 2 2 2 2 2 2 2 2
left_child=1 5 4 -4 -3 7 -7 -1 11 -10 -11 13 -13 -2
right_child=8 2 3 -5 -6 6 -8 -9 9 10 -12 12 -14 -15
leaf_value=-0.00054475900229058831 -0.00026640387302220169 -0.00041973788620093848 0.0012851074019433241 -6.2402096463412782e-05 0.0001245711136867254 -4.7203788757324221e-05 -0.00056835384516632067 4.3186787665368655e-05 0.00074504836616602621 0.00038287248934968033 -0.00051842336162562935 0.0009481365569432576 -0.0001267813228821997 0.00021904624681919814
leaf_weight=471 6368 615 399 197 9423 1992 1043 9337 433 331 445 367 1073 792
leaf_count=471 6368 615 399 197 9423 1992 1043 9337 433 331 445 367 1073 792
